digraph Tree {
node [shape=box, style="rounded", color="black", fontname="helvetica"] ;
edge [fontname="helvetica"] ;
0 [label="N_106 <= 0.1\nsquared_error = 0.0\nsamples = 4486\nvalue = [[0.0]\n[0.0]]"] ;
1 [label="N_120 <= 0.1\nsquared_error = 0.0\nsamples = 4227\nvalue = [[0.0]\n[0.0]]"] ;
0 -> 1 [labeldistance=2.5, labelangle=45, headlabel="True"] ;
2 [label="N_115 <= 0.2\nsquared_error = 0.0\nsamples = 2193\nvalue = [[0.0]\n[0.0]]"] ;
1 -> 2 ;
3 [label="113_PV_1 <= 0.0\nsquared_error = 0.0\nsamples = 2131\nvalue = [[0.0]\n[0.0]]"] ;
2 -> 3 ;
4 [label="N_119 <= 0.2\nsquared_error = 0.0\nsamples = 1522\nvalue = [[0.0]\n[0.0]]"] ;
3 -> 4 ;
5 [label="101_PV_1 <= 0.0\nsquared_error = 0.0\nsamples = 1521\nvalue = [[0.0]\n[0.0]]"] ;
4 -> 5 ;
6 [label="104_PV_1 <= 0.0\nsquared_error = 0.0\nsamples = 1507\nvalue = [[0.0]\n[0.0]]"] ;
5 -> 6 ;
7 [label="squared_error = 0.0\nsamples = 1506\nvalue = [[0.0]\n[0.0]]"] ;
6 -> 7 ;
8 [label="squared_error = 0.0\nsamples = 1\nvalue = [[0.0]\n[0.0]]"] ;
6 -> 8 ;
9 [label="101_PV_4 <= 0.0\nsquared_error = 0.0\nsamples = 14\nvalue = [[0.0]\n[0.0]]"] ;
5 -> 9 ;
10 [label="N_103 <= 0.1\nsquared_error = 0.0\nsamples = 2\nvalue = [[0.3]\n[0.0]]"] ;
9 -> 10 ;
11 [label="squared_error = 0.0\nsamples = 1\nvalue = [[0.3]\n[0.0]]"] ;
10 -> 11 ;
12 [label="squared_error = -0.0\nsamples = 1\nvalue = [[0.3]\n[0.0]]"] ;
10 -> 12 ;
13 [label="squared_error = 0.0\nsamples = 12\nvalue = [[0.0]\n[0.0]]"] ;
9 -> 13 ;
14 [label="squared_error = 0.0\nsamples = 1\nvalue = [[0.3]\n[0.0]]"] ;
4 -> 14 ;
15 [label="103_PV_1 <= 0.0\nsquared_error = 0.0\nsamples = 609\nvalue = [[0.0]\n[0.0]]"] ;
3 -> 15 ;
16 [label="N_105 <= 0.0\nsquared_error = 0.0\nsamples = 111\nvalue = [[0.1]\n[0.0]]"] ;
15 -> 16 ;
17 [label="113_PV_1 <= 0.1\nsquared_error = 0.0\nsamples = 97\nvalue = [[0.1]\n[0.0]]"] ;
16 -> 17 ;
18 [label="N_106 <= 0.0\nsquared_error = 0.0\nsamples = 94\nvalue = [[0.0]\n[0.0]]"] ;
17 -> 18 ;
19 [label="N_101 <= 0.0\nsquared_error = 0.0\nsamples = 10\nvalue = [[0.2]\n[0.0]]"] ;
18 -> 19 ;
20 [label="squared_error = 0.0\nsamples = 5\nvalue = [[0.0]\n[0.0]]"] ;
19 -> 20 ;
21 [label="N_114 <= 0.2\nsquared_error = 0.0\nsamples = 5\nvalue = [[0.4]\n[0.0]]"] ;
19 -> 21 ;
22 [label="N_115 <= 0.2\nsquared_error = 0.0\nsamples = 4\nvalue = [[0.5]\n[0.0]]"] ;
21 -> 22 ;
23 [label="118_RTPV_3 <= 0.0\nsquared_error = 0.0\nsamples = 3\nvalue = [[0.4]\n[0.0]]"] ;
22 -> 23 ;
24 [label="N_118 <= 0.1\nsquared_error = 0.0\nsamples = 2\nvalue = [[0.5]\n[0.0]]"] ;
23 -> 24 ;
25 [label="squared_error = 0.0\nsamples = 1\nvalue = [[0.5]\n[0.0]]"] ;
24 -> 25 ;
26 [label="squared_error = -0.0\nsamples = 1\nvalue = [[0.4]\n[0.0]]"] ;
24 -> 26 ;
27 [label="squared_error = -0.0\nsamples = 1\nvalue = [[0.4]\n[0.0]]"] ;
23 -> 27 ;
28 [label="squared_error = 0.0\nsamples = 1\nvalue = [[0.6]\n[0.0]]"] ;
22 -> 28 ;
29 [label="squared_error = 0.0\nsamples = 1\nvalue = [[0.0]\n[0.0]]"] ;
21 -> 29 ;
30 [label="N_106 <= 0.1\nsquared_error = 0.0\nsamples = 84\nvalue = [[0.0]\n[0.0]]"] ;
18 -> 30 ;
31 [label="122_WIND_1 <= 1.2\nsquared_error = 0.0\nsamples = 83\nvalue = [[0.0]\n[0.0]]"] ;
30 -> 31 ;
32 [label="N_102 <= 0.1\nsquared_error = 0.0\nsamples = 78\nvalue = [[0.0]\n[0.0]]"] ;
31 -> 32 ;
33 [label="N_102 <= 0.0\nsquared_error = 0.0\nsamples = 76\nvalue = [[0.0]\n[0.0]]"] ;
32 -> 33 ;
34 [label="N_110 <= 0.1\nsquared_error = 0.0\nsamples = 5\nvalue = [[0.1]\n[0.0]]"] ;
33 -> 34 ;
35 [label="N_115 <= 0.2\nsquared_error = 0.0\nsamples = 4\nvalue = [[0.0]\n[0.0]]"] ;
34 -> 35 ;
36 [label="squared_error = 0.0\nsamples = 3\nvalue = [[0.0]\n[0.0]]"] ;
35 -> 36 ;
37 [label="squared_error = 0.0\nsamples = 1\nvalue = [[0.1]\n[0.0]]"] ;
35 -> 37 ;
38 [label="squared_error = 0.0\nsamples = 1\nvalue = [[0.4]\n[0.0]]"] ;
34 -> 38 ;
39 [label="113_PV_1 <= 0.0\nsquared_error = 0.0\nsamples = 71\nvalue = [[0.0]\n[0.0]]"] ;
33 -> 39 ;
40 [label="N_105 <= 0.0\nsquared_error = 0.0\nsamples = 14\nvalue = [[0.1]\n[0.0]]"] ;
39 -> 40 ;
41 [label="118_RTPV_10 <= 0.0\nsquared_error = 0.0\nsamples = 13\nvalue = [[0.0]\n[0.0]]"] ;
40 -> 41 ;
42 [label="squared_error = -0.0\nsamples = 11\nvalue = [[0.0]\n[0.0]]"] ;
41 -> 42 ;
43 [label="118_RTPV_7 <= 0.0\nsquared_error = 0.0\nsamples = 2\nvalue = [[0.1]\n[0.0]]"] ;
41 -> 43 ;
44 [label="squared_error = 0.0\nsamples = 1\nvalue = [[0.1]\n[0.0]]"] ;
43 -> 44 ;
45 [label="squared_error = 0.0\nsamples = 1\nvalue = [[0.1]\n[0.0]]"] ;
43 -> 45 ;
46 [label="squared_error = 0.0\nsamples = 1\nvalue = [[0.4]\n[0.0]]"] ;
40 -> 46 ;
47 [label="N_119 <= 0.2\nsquared_error = 0.0\nsamples = 57\nvalue = [[0.0]\n[0.0]]"] ;
39 -> 47 ;
48 [label="122_WIND_1 <= 0.1\nsquared_error = 0.0\nsamples = 55\nvalue = [[0.0]\n[0.0]]"] ;
47 -> 48 ;
49 [label="N_103 <= 0.1\nsquared_error = 0.0\nsamples = 4\nvalue = [[0.0]\n[0.0]]"] ;
48 -> 49 ;
50 [label="squared_error = 0.0\nsamples = 1\nvalue = [[0.1]\n[0.0]]"] ;
49 -> 50 ;
51 [label="squared_error = 0.0\nsamples = 3\nvalue = [[0.0]\n[0.0]]"] ;
49 -> 51 ;
52 [label="102_PV_1 <= 0.0\nsquared_error = 0.0\nsamples = 51\nvalue = [[0.0]\n[0.0]]"] ;
48 -> 52 ;
53 [label="squared_error = 0.0\nsamples = 40\nvalue = [[0.0]\n[0.0]]"] ;
52 -> 53 ;
54 [label="102_PV_2 <= 0.0\nsquared_error = 0.0\nsamples = 11\nvalue = [[0.0]\n[0.0]]"] ;
52 -> 54 ;
55 [label="squared_error = 0.0\nsamples = 1\nvalue = [[0.1]\n[0.0]]"] ;
54 -> 55 ;
56 [label="squared_error = 0.0\nsamples = 10\nvalue = [[0.0]\n[0.0]]"] ;
54 -> 56 ;
57 [label="118_RTPV_2 <= 0.0\nsquared_error = 0.0\nsamples = 2\nvalue = [[0.1]\n[0.0]]"] ;
47 -> 57 ;
58 [label="squared_error = 0.0\nsamples = 1\nvalue = [[0.0]\n[0.0]]"] ;
57 -> 58 ;
59 [label="squared_error = 0.0\nsamples = 1\nvalue = [[0.1]\n[0.0]]"] ;
57 -> 59 ;
60 [label="N_109 <= 0.1\nsquared_error = 0.0\nsamples = 2\nvalue = [[0.2]\n[0.0]]"] ;
32 -> 60 ;
61 [label="squared_error = 0.0\nsamples = 1\nvalue = [[0.0]\n[0.0]]"] ;
60 -> 61 ;
62 [label="squared_error = 0.0\nsamples = 1\nvalue = [[0.3]\n[0.0]]"] ;
60 -> 62 ;
63 [label="122_WIND_1 <= 1.3\nsquared_error = 0.0\nsamples = 5\nvalue = [[0.2]\n[0.0]]"] ;
31 -> 63 ;
64 [label="N_120 <= 0.1\nsquared_error = 0.0\nsamples = 2\nvalue = [[0.5]\n[0.0]]"] ;
63 -> 64 ;
65 [label="squared_error = 0.0\nsamples = 1\nvalue = [[0.5]\n[0.0]]"] ;
64 -> 65 ;
66 [label="squared_error = -0.0\nsamples = 1\nvalue = [[0.5]\n[0.0]]"] ;
64 -> 66 ;
67 [label="squared_error = 0.0\nsamples = 3\nvalue = [[0.0]\n[0.0]]"] ;
63 -> 67 ;
68 [label="squared_error = 0.0\nsamples = 1\nvalue = [[0.3]\n[0.0]]"] ;
30 -> 68 ;
69 [label="101_PV_2 <= 0.0\nsquared_error = 0.0\nsamples = 3\nvalue = [[0.3]\n[0.0]]"] ;
17 -> 69 ;
70 [label="squared_error = 0.0\nsamples = 1\nvalue = [[0.0]\n[0.0]]"] ;
69 -> 70 ;
71 [label="118_RTPV_2 <= 0.0\nsquared_error = 0.0\nsamples = 2\nvalue = [[0.4]\n[0.0]]"] ;
69 -> 71 ;
72 [label="squared_error = 0.0\nsamples = 1\nvalue = [[0.5]\n[0.0]]"] ;
71 -> 72 ;
73 [label="squared_error = -0.0\nsamples = 1\nvalue = [[0.3]\n[0.0]]"] ;
71 -> 73 ;
74 [label="122_WIND_1 <= 0.9\nsquared_error = 0.0\nsamples = 14\nvalue = [[0.2]\n[0.0]]"] ;
16 -> 74 ;
75 [label="118_RTPV_9 <= 0.0\nsquared_error = 0.0\nsamples = 7\nvalue = [[0.1]\n[0.0]]"] ;
74 -> 75 ;
76 [label="N_113 <= 0.1\nsquared_error = 0.0\nsamples = 2\nvalue = [[0.2]\n[0.0]]"] ;
75 -> 76 ;
77 [label="squared_error = 0.0\nsamples = 1\nvalue = [[0.1]\n[0.0]]"] ;
76 -> 77 ;
78 [label="squared_error = -0.0\nsamples = 1\nvalue = [[0.3]\n[0.0]]"] ;
76 -> 78 ;
79 [label="squared_error = 0.0\nsamples = 5\nvalue = [[0.0]\n[0.0]]"] ;
75 -> 79 ;
80 [label="N_115 <= 0.2\nsquared_error = 0.0\nsamples = 7\nvalue = [[0.3]\n[0.0]]"] ;
74 -> 80 ;
81 [label="118_RTPV_9 <= 0.0\nsquared_error = 0.0\nsamples = 2\nvalue = [[0.2]\n[0.0]]"] ;
80 -> 81 ;
82 [label="squared_error = 0.0\nsamples = 1\nvalue = [[0.0]\n[0.0]]"] ;
81 -> 82 ;
83 [label="squared_error = 0.0\nsamples = 1\nvalue = [[0.2]\n[0.0]]"] ;
81 -> 83 ;
84 [label="N_108 <= 0.1\nsquared_error = 0.0\nsamples = 5\nvalue = [[0.4]\n[0.0]]"] ;
80 -> 84 ;
85 [label="118_RTPV_7 <= 0.0\nsquared_error = 0.0\nsamples = 2\nvalue = [[0.4]\n[0.0]]"] ;
84 -> 85 ;
86 [label="squared_error = -0.0\nsamples = 1\nvalue = [[0.4]\n[0.0]]"] ;
85 -> 86 ;
87 [label="squared_error = -0.0\nsamples = 1\nvalue = [[0.4]\n[0.0]]"] ;
85 -> 87 ;
88 [label="118_RTPV_9 <= 0.0\nsquared_error = 0.0\nsamples = 3\nvalue = [[0.3]\n[0.0]]"] ;
84 -> 88 ;
89 [label="118_RTPV_2 <= 0.0\nsquared_error = 0.0\nsamples = 2\nvalue = [[0.3]\n[0.0]]"] ;
88 -> 89 ;
90 [label="squared_error = 0.0\nsamples = 1\nvalue = [[0.3]\n[0.0]]"] ;
89 -> 90 ;
91 [label="squared_error = -0.0\nsamples = 1\nvalue = [[0.3]\n[0.0]]"] ;
89 -> 91 ;
92 [label="squared_error = 0.0\nsamples = 1\nvalue = [[0.4]\n[0.0]]"] ;
88 -> 92 ;
93 [label="N_101 <= 0.1\nsquared_error = 0.0\nsamples = 498\nvalue = [[0.0]\n[0.0]]"] ;
15 -> 93 ;
94 [label="N_114 <= 0.2\nsquared_error = 0.0\nsamples = 439\nvalue = [[0.0]\n[0.0]]"] ;
93 -> 94 ;
95 [label="N_107 <= 0.1\nsquared_error = 0.0\nsamples = 434\nvalue = [[0.0]\n[0.0]]"] ;
94 -> 95 ;
96 [label="N_118 <= 0.2\nsquared_error = 0.0\nsamples = 424\nvalue = [[0.0]\n[0.0]]"] ;
95 -> 96 ;
97 [label="N_116 <= 0.0\nsquared_error = 0.0\nsamples = 415\nvalue = [[0.0]\n[0.0]]"] ;
96 -> 97 ;
98 [label="N_114 <= 0.1\nsquared_error = 0.0\nsamples = 35\nvalue = [[0.0]\n[0.0]]"] ;
97 -> 98 ;
99 [label="squared_error = 0.0\nsamples = 32\nvalue = [[0.0]\n[0.0]]"] ;
98 -> 99 ;
100 [label="104_PV_1 <= 0.0\nsquared_error = 0.0\nsamples = 3\nvalue = [[0.1]\n[0.0]]"] ;
98 -> 100 ;
101 [label="squared_error = 0.0\nsamples = 1\nvalue = [[0.0]\n[0.0]]"] ;
100 -> 101 ;
102 [label="119_PV_1 <= 0.0\nsquared_error = 0.0\nsamples = 2\nvalue = [[0.2]\n[0.0]]"] ;
100 -> 102 ;
103 [label="squared_error = 0.0\nsamples = 1\nvalue = [[0.3]\n[0.0]]"] ;
102 -> 103 ;
104 [label="squared_error = -0.0\nsamples = 1\nvalue = [[0.1]\n[0.0]]"] ;
102 -> 104 ;
105 [label="122_WIND_1 <= 0.0\nsquared_error = 0.0\nsamples = 380\nvalue = [[0.0]\n[0.0]]"] ;
97 -> 105 ;
106 [label="N_116 <= 0.0\nsquared_error = 0.0\nsamples = 2\nvalue = [[0.0]\n[0.0]]"] ;
105 -> 106 ;
107 [label="squared_error = 0.0\nsamples = 1\nvalue = [[0.0]\n[0.0]]"] ;
106 -> 107 ;
108 [label="squared_error = 0.0\nsamples = 1\nvalue = [[0.0]\n[0.0]]"] ;
106 -> 108 ;
109 [label="N_102 <= 0.0\nsquared_error = 0.0\nsamples = 378\nvalue = [[0.0]\n[0.0]]"] ;
105 -> 109 ;
110 [label="N_104 <= 0.0\nsquared_error = 0.0\nsamples = 371\nvalue = [[0.0]\n[0.0]]"] ;
109 -> 110 ;
111 [label="N_106 <= 0.0\nsquared_error = 0.0\nsamples = 4\nvalue = [[0.0]\n[0.0]]"] ;
110 -> 111 ;
112 [label="squared_error = 0.0\nsamples = 3\nvalue = [[0.0]\n[0.0]]"] ;
111 -> 112 ;
113 [label="squared_error = 0.0\nsamples = 1\nvalue = [[0.0]\n[0.0]]"] ;
111 -> 113 ;
114 [label="N_107 <= 0.1\nsquared_error = 0.0\nsamples = 367\nvalue = [[0.0]\n[0.0]]"] ;
110 -> 114 ;
115 [label="squared_error = 0.0\nsamples = 341\nvalue = [[0.0]\n[0.0]]"] ;
114 -> 115 ;
116 [label="104_PV_1 <= 0.0\nsquared_error = 0.0\nsamples = 26\nvalue = [[0.0]\n[0.0]]"] ;
114 -> 116 ;
117 [label="N_120 <= 0.1\nsquared_error = 0.0\nsamples = 3\nvalue = [[0.0]\n[0.0]]"] ;
116 -> 117 ;
118 [label="101_PV_4 <= 0.0\nsquared_error = 0.0\nsamples = 2\nvalue = [[0.0]\n[0.0]]"] ;
117 -> 118 ;
119 [label="squared_error = 0.0\nsamples = 1\nvalue = [[0.0]\n[0.0]]"] ;
118 -> 119 ;
120 [label="squared_error = 0.0\nsamples = 1\nvalue = [[0.0]\n[0.0]]"] ;
118 -> 120 ;
121 [label="squared_error = 0.0\nsamples = 1\nvalue = [[0.0]\n[0.0]]"] ;
117 -> 121 ;
122 [label="squared_error = 0.0\nsamples = 23\nvalue = [[0.0]\n[0.0]]"] ;
116 -> 122 ;
123 [label="101_PV_1 <= 0.0\nsquared_error = 0.0\nsamples = 7\nvalue = [[0.0]\n[0.0]]"] ;
109 -> 123 ;
124 [label="squared_error = 0.0\nsamples = 1\nvalue = [[0.1]\n[0.0]]"] ;
123 -> 124 ;
125 [label="squared_error = 0.0\nsamples = 6\nvalue = [[0.0]\n[0.0]]"] ;
123 -> 125 ;
126 [label="N_118 <= 0.2\nsquared_error = 0.0\nsamples = 9\nvalue = [[0.0]\n[0.0]]"] ;
96 -> 126 ;
127 [label="squared_error = 0.0\nsamples = 1\nvalue = [[0.1]\n[0.0]]"] ;
126 -> 127 ;
128 [label="squared_error = 0.0\nsamples = 8\nvalue = [[0.0]\n[0.0]]"] ;
126 -> 128 ;
129 [label="N_109 <= 0.1\nsquared_error = 0.0\nsamples = 10\nvalue = [[0.0]\n[0.0]]"] ;
95 -> 129 ;
130 [label="N_116 <= 0.0\nsquared_error = 0.0\nsamples = 2\nvalue = [[0.1]\n[0.0]]"] ;
129 -> 130 ;
131 [label="squared_error = 0.0\nsamples = 1\nvalue = [[0.2]\n[0.0]]"] ;
130 -> 131 ;
132 [label="squared_error = 0.0\nsamples = 1\nvalue = [[0.1]\n[0.0]]"] ;
130 -> 132 ;
133 [label="squared_error = 0.0\nsamples = 8\nvalue = [[0.0]\n[0.0]]"] ;
129 -> 133 ;
134 [label="N_106 <= 0.0\nsquared_error = 0.0\nsamples = 5\nvalue = [[0.1]\n[0.0]]"] ;
94 -> 134 ;
135 [label="squared_error = 0.0\nsamples = 1\nvalue = [[0.4]\n[0.0]]"] ;
134 -> 135 ;
136 [label="squared_error = 0.0\nsamples = 4\nvalue = [[0.0]\n[0.0]]"] ;
134 -> 136 ;
137 [label="101_PV_1 <= 0.0\nsquared_error = 0.0\nsamples = 59\nvalue = [[0.0]\n[0.0]]"] ;
93 -> 137 ;
138 [label="N_103 <= 0.1\nsquared_error = 0.0\nsamples = 15\nvalue = [[0.1]\n[0.0]]"] ;
137 -> 138 ;
139 [label="122_WIND_1 <= 0.9\nsquared_error = 0.0\nsamples = 11\nvalue = [[0.0]\n[0.0]]"] ;
138 -> 139 ;
140 [label="N_106 <= 0.1\nsquared_error = 0.0\nsamples = 10\nvalue = [[0.0]\n[0.0]]"] ;
139 -> 140 ;
141 [label="N_104 <= 0.0\nsquared_error = 0.0\nsamples = 2\nvalue = [[0.1]\n[0.0]]"] ;
140 -> 141 ;
142 [label="squared_error = 0.0\nsamples = 1\nvalue = [[0.1]\n[0.0]]"] ;
141 -> 142 ;
143 [label="squared_error = -0.0\nsamples = 1\nvalue = [[0.1]\n[0.0]]"] ;
141 -> 143 ;
144 [label="squared_error = 0.0\nsamples = 8\nvalue = [[0.0]\n[0.0]]"] ;
140 -> 144 ;
145 [label="squared_error = 0.0\nsamples = 1\nvalue = [[0.3]\n[0.0]]"] ;
139 -> 145 ;
146 [label="N_114 <= 0.1\nsquared_error = 0.0\nsamples = 4\nvalue = [[0.5]\n[0.0]]"] ;
138 -> 146 ;
147 [label="N_109 <= 0.1\nsquared_error = 0.0\nsamples = 2\nvalue = [[0.4]\n[0.0]]"] ;
146 -> 147 ;
148 [label="squared_error = 0.0\nsamples = 1\nvalue = [[0.4]\n[0.0]]"] ;
147 -> 148 ;
149 [label="squared_error = 0.0\nsamples = 1\nvalue = [[0.3]\n[0.0]]"] ;
147 -> 149 ;
150 [label="118_RTPV_8 <= 0.0\nsquared_error = 0.0\nsamples = 2\nvalue = [[0.5]\n[0.0]]"] ;
146 -> 150 ;
151 [label="squared_error = 0.0\nsamples = 1\nvalue = [[0.5]\n[0.0]]"] ;
150 -> 151 ;
152 [label="squared_error = -0.0\nsamples = 1\nvalue = [[0.6]\n[0.0]]"] ;
150 -> 152 ;
153 [label="N_110 <= 0.0\nsquared_error = 0.0\nsamples = 44\nvalue = [[0.0]\n[0.0]]"] ;
137 -> 153 ;
154 [label="squared_error = 0.0\nsamples = 1\nvalue = [[0.1]\n[0.0]]"] ;
153 -> 154 ;
155 [label="101_PV_4 <= 0.0\nsquared_error = 0.0\nsamples = 43\nvalue = [[0.0]\n[0.0]]"] ;
153 -> 155 ;
156 [label="squared_error = 0.0\nsamples = 1\nvalue = [[0.1]\n[0.0]]"] ;
155 -> 156 ;
157 [label="N_110 <= 0.0\nsquared_error = 0.0\nsamples = 42\nvalue = [[0.0]\n[0.0]]"] ;
155 -> 157 ;
158 [label="squared_error = 0.0\nsamples = 1\nvalue = [[0.0]\n[0.0]]"] ;
157 -> 158 ;
159 [label="squared_error = 0.0\nsamples = 41\nvalue = [[0.0]\n[0.0]]"] ;
157 -> 159 ;
160 [label="N_104 <= 0.0\nsquared_error = 0.0\nsamples = 62\nvalue = [[0.1]\n[0.0]]"] ;
2 -> 160 ;
161 [label="102_PV_2 <= 0.0\nsquared_error = 0.0\nsamples = 19\nvalue = [[0.2]\n[0.0]]"] ;
160 -> 161 ;
162 [label="squared_error = 0.0\nsamples = 6\nvalue = [[0.0]\n[0.0]]"] ;
161 -> 162 ;
163 [label="122_WIND_1 <= 0.5\nsquared_error = 0.0\nsamples = 13\nvalue = [[0.3]\n[0.0]]"] ;
161 -> 163 ;
164 [label="N_106 <= 0.1\nsquared_error = 0.0\nsamples = 3\nvalue = [[0.6]\n[0.0]]"] ;
163 -> 164 ;
165 [label="N_113 <= 0.2\nsquared_error = 0.0\nsamples = 2\nvalue = [[0.5]\n[0.0]]"] ;
164 -> 165 ;
166 [label="squared_error = 0.0\nsamples = 1\nvalue = [[0.5]\n[0.0]]"] ;
165 -> 166 ;
167 [label="squared_error = -0.0\nsamples = 1\nvalue = [[0.5]\n[0.0]]"] ;
165 -> 167 ;
168 [label="squared_error = 0.0\nsamples = 1\nvalue = [[0.6]\n[0.0]]"] ;
164 -> 168 ;
169 [label="102_PV_1 <= 0.0\nsquared_error = 0.0\nsamples = 10\nvalue = [[0.3]\n[0.0]]"] ;
163 -> 169 ;
170 [label="118_RTPV_7 <= 0.0\nsquared_error = 0.0\nsamples = 8\nvalue = [[0.3]\n[0.0]]"] ;
169 -> 170 ;
171 [label="squared_error = -0.0\nsamples = 1\nvalue = [[0.2]\n[0.0]]"] ;
170 -> 171 ;
172 [label="104_PV_1 <= 0.0\nsquared_error = 0.0\nsamples = 7\nvalue = [[0.3]\n[0.0]]"] ;
170 -> 172 ;
173 [label="N_115 <= 0.2\nsquared_error = 0.0\nsamples = 6\nvalue = [[0.3]\n[0.0]]"] ;
172 -> 173 ;
174 [label="squared_error = 0.0\nsamples = 1\nvalue = [[0.3]\n[0.0]]"] ;
173 -> 174 ;
175 [label="N_105 <= 0.0\nsquared_error = 0.0\nsamples = 5\nvalue = [[0.3]\n[0.0]]"] ;
173 -> 175 ;
176 [label="squared_error = 0.0\nsamples = 1\nvalue = [[0.3]\n[0.0]]"] ;
175 -> 176 ;
177 [label="101_PV_3 <= 0.0\nsquared_error = 0.0\nsamples = 4\nvalue = [[0.3]\n[0.0]]"] ;
175 -> 177 ;
178 [label="squared_error = 0.0\nsamples = 1\nvalue = [[0.3]\n[0.0]]"] ;
177 -> 178 ;
179 [label="N_109 <= 0.1\nsquared_error = 0.0\nsamples = 3\nvalue = [[0.3]\n[0.0]]"] ;
177 -> 179 ;
180 [label="squared_error = 0.0\nsamples = 1\nvalue = [[0.3]\n[0.0]]"] ;
179 -> 180 ;
181 [label="N_115 <= 0.2\nsquared_error = 0.0\nsamples = 2\nvalue = [[0.3]\n[0.0]]"] ;
179 -> 181 ;
182 [label="squared_error = 0.0\nsamples = 1\nvalue = [[0.3]\n[0.0]]"] ;
181 -> 182 ;
183 [label="squared_error = 0.0\nsamples = 1\nvalue = [[0.3]\n[0.0]]"] ;
181 -> 183 ;
184 [label="squared_error = 0.0\nsamples = 1\nvalue = [[0.4]\n[0.0]]"] ;
172 -> 184 ;
185 [label="squared_error = 0.0\nsamples = 2\nvalue = [[0.0]\n[0.0]]"] ;
169 -> 185 ;
186 [label="N_108 <= 0.1\nsquared_error = 0.0\nsamples = 43\nvalue = [[0.0]\n[0.0]]"] ;
160 -> 186 ;
187 [label="N_103 <= 0.1\nsquared_error = 0.0\nsamples = 42\nvalue = [[0.0]\n[0.0]]"] ;
186 -> 187 ;
188 [label="118_RTPV_10 <= 0.0\nsquared_error = 0.0\nsamples = 7\nvalue = [[0.2]\n[0.0]]"] ;
187 -> 188 ;
189 [label="101_PV_3 <= 0.0\nsquared_error = 0.0\nsamples = 3\nvalue = [[0.4]\n[0.0]]"] ;
188 -> 189 ;
190 [label="102_PV_1 <= 0.0\nsquared_error = 0.0\nsamples = 2\nvalue = [[0.3]\n[0.0]]"] ;
189 -> 190 ;
191 [label="squared_error = 0.0\nsamples = 1\nvalue = [[0.3]\n[0.0]]"] ;
190 -> 191 ;
192 [label="squared_error = 0.0\nsamples = 1\nvalue = [[0.3]\n[0.0]]"] ;
190 -> 192 ;
193 [label="squared_error = 0.0\nsamples = 1\nvalue = [[0.4]\n[0.0]]"] ;
189 -> 193 ;
194 [label="N_118 <= 0.2\nsquared_error = 0.0\nsamples = 4\nvalue = [[0.0]\n[0.0]]"] ;
188 -> 194 ;
195 [label="squared_error = 0.0\nsamples = 1\nvalue = [[0.2]\n[0.0]]"] ;
194 -> 195 ;
196 [label="squared_error = 0.0\nsamples = 3\nvalue = [[0.0]\n[0.0]]"] ;
194 -> 196 ;
197 [label="squared_error = 0.0\nsamples = 35\nvalue = [[0.0]\n[0.0]]"] ;
187 -> 197 ;
198 [label="squared_error = 0.0\nsamples = 1\nvalue = [[0.8]\n[0.0]]"] ;
186 -> 198 ;
199 [label="102_PV_2 <= 0.0\nsquared_error = 0.0\nsamples = 2034\nvalue = [[0.1]\n[0.0]]"] ;
1 -> 199 ;
200 [label="104_PV_1 <= 0.0\nsquared_error = 0.0\nsamples = 1357\nvalue = [[0.1]\n[0.0]]"] ;
199 -> 200 ;
201 [label="118_RTPV_7 <= 0.0\nsquared_error = 0.0\nsamples = 442\nvalue = [[0.0]\n[0.0]]"] ;
200 -> 201 ;
202 [label="113_PV_1 <= 0.0\nsquared_error = 0.0\nsamples = 362\nvalue = [[0.0]\n[0.0]]"] ;
201 -> 202 ;
203 [label="N_110 <= 0.2\nsquared_error = 0.0\nsamples = 346\nvalue = [[0.0]\n[0.0]]"] ;
202 -> 203 ;
204 [label="N_103 <= 0.2\nsquared_error = 0.0\nsamples = 343\nvalue = [[0.0]\n[0.0]]"] ;
203 -> 204 ;
205 [label="N_101 <= 0.1\nsquared_error = 0.0\nsamples = 342\nvalue = [[0.0]\n[0.0]]"] ;
204 -> 205 ;
206 [label="N_110 <= 0.2\nsquared_error = 0.0\nsamples = 321\nvalue = [[0.0]\n[0.0]]"] ;
205 -> 206 ;
207 [label="N_115 <= 0.3\nsquared_error = 0.0\nsamples = 316\nvalue = [[0.0]\n[0.0]]"] ;
206 -> 207 ;
208 [label="N_114 <= 0.2\nsquared_error = 0.0\nsamples = 314\nvalue = [[0.0]\n[0.0]]"] ;
207 -> 208 ;
209 [label="N_101 <= 0.1\nsquared_error = 0.0\nsamples = 311\nvalue = [[0.0]\n[0.0]]"] ;
208 -> 209 ;
210 [label="N_102 <= 0.1\nsquared_error = 0.0\nsamples = 306\nvalue = [[0.0]\n[0.0]]"] ;
209 -> 210 ;
211 [label="N_113 <= 0.2\nsquared_error = 0.0\nsamples = 305\nvalue = [[0.0]\n[0.0]]"] ;
210 -> 211 ;
212 [label="squared_error = 0.0\nsamples = 301\nvalue = [[0.0]\n[0.0]]"] ;
211 -> 212 ;
213 [label="N_106 <= 0.1\nsquared_error = 0.0\nsamples = 4\nvalue = [[0.0]\n[0.0]]"] ;
211 -> 213 ;
214 [label="squared_error = 0.0\nsamples = 3\nvalue = [[0.0]\n[0.0]]"] ;
213 -> 214 ;
215 [label="squared_error = 0.0\nsamples = 1\nvalue = [[0.0]\n[0.0]]"] ;
213 -> 215 ;
216 [label="squared_error = 0.0\nsamples = 1\nvalue = [[0.0]\n[0.0]]"] ;
210 -> 216 ;
217 [label="N_110 <= 0.2\nsquared_error = 0.0\nsamples = 5\nvalue = [[0.0]\n[0.0]]"] ;
209 -> 217 ;
218 [label="squared_error = 0.0\nsamples = 3\nvalue = [[0.0]\n[0.0]]"] ;
217 -> 218 ;
219 [label="122_WIND_1 <= 1.8\nsquared_error = 0.0\nsamples = 2\nvalue = [[0.0]\n[0.0]]"] ;
217 -> 219 ;
220 [label="squared_error = 0.0\nsamples = 1\nvalue = [[0.0]\n[0.0]]"] ;
219 -> 220 ;
221 [label="squared_error = 0.0\nsamples = 1\nvalue = [[0.0]\n[0.0]]"] ;
219 -> 221 ;
222 [label="N_115 <= 0.3\nsquared_error = 0.0\nsamples = 3\nvalue = [[0.0]\n[0.0]]"] ;
208 -> 222 ;
223 [label="squared_error = 0.0\nsamples = 2\nvalue = [[0.0]\n[0.0]]"] ;
222 -> 223 ;
224 [label="squared_error = 0.0\nsamples = 1\nvalue = [[0.0]\n[0.0]]"] ;
222 -> 224 ;
225 [label="N_106 <= 0.1\nsquared_error = 0.0\nsamples = 2\nvalue = [[0.0]\n[0.0]]"] ;
207 -> 225 ;
226 [label="squared_error = 0.0\nsamples = 1\nvalue = [[0.0]\n[0.0]]"] ;
225 -> 226 ;
227 [label="squared_error = 0.0\nsamples = 1\nvalue = [[0.0]\n[0.0]]"] ;
225 -> 227 ;
228 [label="N_102 <= 0.1\nsquared_error = 0.0\nsamples = 5\nvalue = [[0.0]\n[0.0]]"] ;
206 -> 228 ;
229 [label="squared_error = 0.0\nsamples = 1\nvalue = [[0.1]\n[0.0]]"] ;
228 -> 229 ;
230 [label="N_115 <= 0.3\nsquared_error = 0.0\nsamples = 4\nvalue = [[0.0]\n[0.0]]"] ;
228 -> 230 ;
231 [label="squared_error = 0.0\nsamples = 1\nvalue = [[0.0]\n[0.0]]"] ;
230 -> 231 ;
232 [label="squared_error = 0.0\nsamples = 3\nvalue = [[0.0]\n[0.0]]"] ;
230 -> 232 ;
233 [label="N_113 <= 0.2\nsquared_error = 0.0\nsamples = 21\nvalue = [[0.0]\n[0.0]]"] ;
205 -> 233 ;
234 [label="N_116 <= 0.0\nsquared_error = 0.0\nsamples = 12\nvalue = [[0.0]\n[0.0]]"] ;
233 -> 234 ;
235 [label="squared_error = 0.0\nsamples = 1\nvalue = [[0.1]\n[0.0]]"] ;
234 -> 235 ;
236 [label="N_101 <= 0.1\nsquared_error = 0.0\nsamples = 11\nvalue = [[0.0]\n[0.0]]"] ;
234 -> 236 ;
237 [label="squared_error = 0.0\nsamples = 1\nvalue = [[0.0]\n[0.0]]"] ;
236 -> 237 ;
238 [label="squared_error = 0.0\nsamples = 10\nvalue = [[0.0]\n[0.0]]"] ;
236 -> 238 ;
239 [label="N_116 <= 0.1\nsquared_error = 0.0\nsamples = 9\nvalue = [[0.0]\n[0.0]]"] ;
233 -> 239 ;
240 [label="N_103 <= 0.2\nsquared_error = 0.0\nsamples = 4\nvalue = [[0.0]\n[0.0]]"] ;
239 -> 240 ;
241 [label="squared_error = 0.0\nsamples = 1\nvalue = [[0.0]\n[0.0]]"] ;
240 -> 241 ;
242 [label="squared_error = 0.0\nsamples = 3\nvalue = [[0.0]\n[0.0]]"] ;
240 -> 242 ;
243 [label="N_118 <= 0.3\nsquared_error = 0.0\nsamples = 5\nvalue = [[0.1]\n[0.0]]"] ;
239 -> 243 ;
244 [label="N_101 <= 0.1\nsquared_error = 0.0\nsamples = 3\nvalue = [[0.1]\n[0.0]]"] ;
243 -> 244 ;
245 [label="N_118 <= 0.3\nsquared_error = 0.0\nsamples = 2\nvalue = [[0.1]\n[0.0]]"] ;
244 -> 245 ;
246 [label="squared_error = 0.0\nsamples = 1\nvalue = [[0.0]\n[0.0]]"] ;
245 -> 246 ;
247 [label="squared_error = 0.0\nsamples = 1\nvalue = [[0.1]\n[0.0]]"] ;
245 -> 247 ;
248 [label="squared_error = 0.0\nsamples = 1\nvalue = [[0.1]\n[0.0]]"] ;
244 -> 248 ;
249 [label="N_106 <= 0.1\nsquared_error = 0.0\nsamples = 2\nvalue = [[0.1]\n[0.0]]"] ;
243 -> 249 ;
250 [label="squared_error = 0.0\nsamples = 1\nvalue = [[0.1]\n[0.0]]"] ;
249 -> 250 ;
251 [label="squared_error = -0.0\nsamples = 1\nvalue = [[0.1]\n[0.0]]"] ;
249 -> 251 ;
252 [label="squared_error = -0.0\nsamples = 1\nvalue = [[0.1]\n[0.0]]"] ;
204 -> 252 ;
253 [label="N_106 <= 0.1\nsquared_error = 0.0\nsamples = 3\nvalue = [[0.1]\n[0.0]]"] ;
203 -> 253 ;
254 [label="N_106 <= 0.1\nsquared_error = 0.0\nsamples = 2\nvalue = [[0.2]\n[0.0]]"] ;
253 -> 254 ;
255 [label="squared_error = 0.0\nsamples = 1\nvalue = [[0.2]\n[0.0]]"] ;
254 -> 255 ;
256 [label="squared_error = 0.0\nsamples = 1\nvalue = [[0.1]\n[0.0]]"] ;
254 -> 256 ;
257 [label="squared_error = -0.0\nsamples = 1\nvalue = [[0.1]\n[0.0]]"] ;
253 -> 257 ;
258 [label="N_116 <= 0.1\nsquared_error = 0.0\nsamples = 16\nvalue = [[0.1]\n[0.0]]"] ;
202 -> 258 ;
259 [label="N_107 <= 0.1\nsquared_error = 0.0\nsamples = 14\nvalue = [[0.0]\n[0.0]]"] ;
258 -> 259 ;
260 [label="N_119 <= 0.1\nsquared_error = 0.0\nsamples = 5\nvalue = [[0.2]\n[0.0]]"] ;
259 -> 260 ;
261 [label="squared_error = 0.0\nsamples = 2\nvalue = [[0.0]\n[0.0]]"] ;
260 -> 261 ;
262 [label="N_109 <= 0.1\nsquared_error = 0.0\nsamples = 3\nvalue = [[0.3]\n[0.0]]"] ;
260 -> 262 ;
263 [label="101_PV_2 <= 0.0\nsquared_error = 0.0\nsamples = 2\nvalue = [[0.2]\n[0.0]]"] ;
262 -> 263 ;
264 [label="squared_error = 0.0\nsamples = 1\nvalue = [[0.2]\n[0.0]]"] ;
263 -> 264 ;
265 [label="squared_error = 0.0\nsamples = 1\nvalue = [[0.3]\n[0.0]]"] ;
263 -> 265 ;
266 [label="squared_error = 0.0\nsamples = 1\nvalue = [[0.3]\n[0.0]]"] ;
262 -> 266 ;
267 [label="squared_error = -0.0\nsamples = 9\nvalue = [[0.0]\n[0.0]]"] ;
259 -> 267 ;
268 [label="119_PV_1 <= 0.0\nsquared_error = 0.0\nsamples = 2\nvalue = [[0.5]\n[0.0]]"] ;
258 -> 268 ;
269 [label="squared_error = 0.0\nsamples = 1\nvalue = [[0.5]\n[0.0]]"] ;
268 -> 269 ;
270 [label="squared_error = -0.0\nsamples = 1\nvalue = [[0.4]\n[0.0]]"] ;
268 -> 270 ;
271 [label="N_113 <= 0.2\nsquared_error = 0.0\nsamples = 80\nvalue = [[0.1]\n[0.0]]"] ;
201 -> 271 ;
272 [label="118_RTPV_3 <= 0.0\nsquared_error = 0.0\nsamples = 73\nvalue = [[0.1]\n[0.0]]"] ;
271 -> 272 ;
273 [label="N_114 <= 0.1\nsquared_error = 0.0\nsamples = 2\nvalue = [[0.5]\n[0.0]]"] ;
272 -> 273 ;
274 [label="squared_error = -0.0\nsamples = 1\nvalue = [[0.4]\n[0.0]]"] ;
273 -> 274 ;
275 [label="squared_error = -0.0\nsamples = 1\nvalue = [[0.5]\n[0.0]]"] ;
273 -> 275 ;
276 [label="N_119 <= 0.1\nsquared_error = 0.0\nsamples = 71\nvalue = [[0.1]\n[0.0]]"] ;
272 -> 276 ;
277 [label="N_116 <= 0.1\nsquared_error = 0.0\nsamples = 14\nvalue = [[0.2]\n[0.0]]"] ;
276 -> 277 ;
278 [label="N_116 <= 0.1\nsquared_error = 0.0\nsamples = 9\nvalue = [[0.3]\n[0.0]]"] ;
277 -> 278 ;
279 [label="N_105 <= 0.0\nsquared_error = 0.0\nsamples = 4\nvalue = [[0.0]\n[0.0]]"] ;
278 -> 279 ;
280 [label="squared_error = 0.0\nsamples = 1\nvalue = [[0.2]\n[0.0]]"] ;
279 -> 280 ;
281 [label="squared_error = 0.0\nsamples = 3\nvalue = [[0.0]\n[0.0]]"] ;
279 -> 281 ;
282 [label="N_101 <= 0.1\nsquared_error = 0.0\nsamples = 5\nvalue = [[0.4]\n[0.0]]"] ;
278 -> 282 ;
283 [label="squared_error = 0.0\nsamples = 1\nvalue = [[0.4]\n[0.0]]"] ;
282 -> 283 ;
284 [label="N_103 <= 0.1\nsquared_error = 0.0\nsamples = 4\nvalue = [[0.3]\n[0.0]]"] ;
282 -> 284 ;
285 [label="N_114 <= 0.1\nsquared_error = 0.0\nsamples = 3\nvalue = [[0.3]\n[0.0]]"] ;
284 -> 285 ;
286 [label="102_PV_1 <= 0.0\nsquared_error = 0.0\nsamples = 2\nvalue = [[0.3]\n[0.0]]"] ;
285 -> 286 ;
287 [label="squared_error = 0.0\nsamples = 1\nvalue = [[0.3]\n[0.0]]"] ;
286 -> 287 ;
288 [label="squared_error = 0.0\nsamples = 1\nvalue = [[0.3]\n[0.0]]"] ;
286 -> 288 ;
289 [label="squared_error = -0.0\nsamples = 1\nvalue = [[0.3]\n[0.0]]"] ;
285 -> 289 ;
290 [label="squared_error = 0.0\nsamples = 1\nvalue = [[0.3]\n[0.0]]"] ;
284 -> 290 ;
291 [label="squared_error = 0.0\nsamples = 5\nvalue = [[0.0]\n[0.0]]"] ;
277 -> 291 ;
292 [label="N_103 <= 0.1\nsquared_error = 0.0\nsamples = 57\nvalue = [[0.0]\n[0.0]]"] ;
276 -> 292 ;
293 [label="118_RTPV_6 <= 0.0\nsquared_error = 0.0\nsamples = 6\nvalue = [[0.2]\n[0.0]]"] ;
292 -> 293 ;
294 [label="squared_error = 0.0\nsamples = 2\nvalue = [[0.0]\n[0.0]]"] ;
293 -> 294 ;
295 [label="118_RTPV_3 <= 0.0\nsquared_error = 0.0\nsamples = 4\nvalue = [[0.3]\n[0.0]]"] ;
293 -> 295 ;
296 [label="102_PV_2 <= 0.0\nsquared_error = 0.0\nsamples = 3\nvalue = [[0.3]\n[0.0]]"] ;
295 -> 296 ;
297 [label="N_104 <= 0.0\nsquared_error = 0.0\nsamples = 2\nvalue = [[0.3]\n[0.0]]"] ;
296 -> 297 ;
298 [label="squared_error = 0.0\nsamples = 1\nvalue = [[0.3]\n[0.0]]"] ;
297 -> 298 ;
299 [label="squared_error = -0.0\nsamples = 1\nvalue = [[0.3]\n[0.0]]"] ;
297 -> 299 ;
300 [label="squared_error = 0.0\nsamples = 1\nvalue = [[0.3]\n[0.0]]"] ;
296 -> 300 ;
301 [label="squared_error = -0.0\nsamples = 1\nvalue = [[0.1]\n[0.0]]"] ;
295 -> 301 ;
302 [label="N_106 <= 0.1\nsquared_error = 0.0\nsamples = 51\nvalue = [[0.0]\n[0.0]]"] ;
292 -> 302 ;
303 [label="N_116 <= 0.1\nsquared_error = 0.0\nsamples = 34\nvalue = [[0.0]\n[0.0]]"] ;
302 -> 303 ;
304 [label="squared_error = -0.0\nsamples = 30\nvalue = [[0.0]\n[0.0]]"] ;
303 -> 304 ;
305 [label="122_WIND_1 <= 1.9\nsquared_error = 0.0\nsamples = 4\nvalue = [[0.0]\n[0.0]]"] ;
303 -> 305 ;
306 [label="N_102 <= 0.1\nsquared_error = 0.0\nsamples = 3\nvalue = [[0.0]\n[0.0]]"] ;
305 -> 306 ;
307 [label="squared_error = 0.0\nsamples = 2\nvalue = [[0.0]\n[0.0]]"] ;
306 -> 307 ;
308 [label="squared_error = 0.0\nsamples = 1\nvalue = [[0.1]\n[0.0]]"] ;
306 -> 308 ;
309 [label="squared_error = 0.0\nsamples = 1\nvalue = [[0.1]\n[0.0]]"] ;
305 -> 309 ;
310 [label="N_106 <= 0.1\nsquared_error = 0.0\nsamples = 17\nvalue = [[0.1]\n[0.0]]"] ;
302 -> 310 ;
311 [label="N_109 <= 0.2\nsquared_error = 0.0\nsamples = 2\nvalue = [[0.4]\n[0.0]]"] ;
310 -> 311 ;
312 [label="squared_error = 0.0\nsamples = 1\nvalue = [[0.4]\n[0.0]]"] ;
311 -> 312 ;
313 [label="squared_error = 0.0\nsamples = 1\nvalue = [[0.4]\n[0.0]]"] ;
311 -> 313 ;
314 [label="122_WIND_1 <= 1.1\nsquared_error = 0.0\nsamples = 15\nvalue = [[0.1]\n[0.0]]"] ;
310 -> 314 ;
315 [label="squared_error = 0.0\nsamples = 7\nvalue = [[0.0]\n[0.0]]"] ;
314 -> 315 ;
316 [label="N_114 <= 0.1\nsquared_error = 0.0\nsamples = 8\nvalue = [[0.1]\n[0.0]]"] ;
314 -> 316 ;
317 [label="squared_error = 0.0\nsamples = 2\nvalue = [[0.0]\n[0.0]]"] ;
316 -> 317 ;
318 [label="N_103 <= 0.2\nsquared_error = 0.0\nsamples = 6\nvalue = [[0.2]\n[0.0]]"] ;
316 -> 318 ;
319 [label="118_RTPV_7 <= 0.0\nsquared_error = 0.0\nsamples = 5\nvalue = [[0.2]\n[0.0]]"] ;
318 -> 319 ;
320 [label="118_RTPV_9 <= 0.0\nsquared_error = 0.0\nsamples = 4\nvalue = [[0.2]\n[0.0]]"] ;
319 -> 320 ;
321 [label="101_PV_1 <= 0.0\nsquared_error = 0.0\nsamples = 2\nvalue = [[0.2]\n[0.0]]"] ;
320 -> 321 ;
322 [label="squared_error = -0.0\nsamples = 1\nvalue = [[0.2]\n[0.0]]"] ;
321 -> 322 ;
323 [label="squared_error = 0.0\nsamples = 1\nvalue = [[0.1]\n[0.0]]"] ;
321 -> 323 ;
324 [label="N_110 <= 0.2\nsquared_error = 0.0\nsamples = 2\nvalue = [[0.2]\n[0.0]]"] ;
320 -> 324 ;
325 [label="squared_error = 0.0\nsamples = 1\nvalue = [[0.2]\n[0.0]]"] ;
324 -> 325 ;
326 [label="squared_error = -0.0\nsamples = 1\nvalue = [[0.2]\n[0.0]]"] ;
324 -> 326 ;
327 [label="squared_error = -0.0\nsamples = 1\nvalue = [[0.2]\n[0.2]]"] ;
319 -> 327 ;
328 [label="squared_error = 0.0\nsamples = 1\nvalue = [[0.0]\n[0.0]]"] ;
318 -> 328 ;
329 [label="N_114 <= 0.2\nsquared_error = 0.0\nsamples = 7\nvalue = [[0.4]\n[0.0]]"] ;
271 -> 329 ;
330 [label="N_109 <= 0.2\nsquared_error = 0.0\nsamples = 5\nvalue = [[0.5]\n[0.0]]"] ;
329 -> 330 ;
331 [label="squared_error = 0.0\nsamples = 1\nvalue = [[0.7]\n[0.0]]"] ;
330 -> 331 ;
332 [label="118_RTPV_2 <= 0.0\nsquared_error = 0.0\nsamples = 4\nvalue = [[0.4]\n[0.0]]"] ;
330 -> 332 ;
333 [label="N_107 <= 0.1\nsquared_error = 0.0\nsamples = 2\nvalue = [[0.4]\n[0.0]]"] ;
332 -> 333 ;
334 [label="squared_error = 0.0\nsamples = 1\nvalue = [[0.4]\n[0.0]]"] ;
333 -> 334 ;
335 [label="squared_error = 0.0\nsamples = 1\nvalue = [[0.4]\n[0.0]]"] ;
333 -> 335 ;
336 [label="N_115 <= 0.3\nsquared_error = 0.0\nsamples = 2\nvalue = [[0.4]\n[0.0]]"] ;
332 -> 336 ;
337 [label="squared_error = 0.0\nsamples = 1\nvalue = [[0.3]\n[0.0]]"] ;
336 -> 337 ;
338 [label="squared_error = -0.0\nsamples = 1\nvalue = [[0.4]\n[0.0]]"] ;
336 -> 338 ;
339 [label="squared_error = -0.0\nsamples = 2\nvalue = [[0.0]\n[0.0]]"] ;
329 -> 339 ;
340 [label="122_WIND_1 <= 1.2\nsquared_error = 0.0\nsamples = 915\nvalue = [[0.1]\n[0.0]]"] ;
200 -> 340 ;
341 [label="102_PV_1 <= 0.0\nsquared_error = 0.0\nsamples = 676\nvalue = [[0.1]\n[0.0]]"] ;
340 -> 341 ;
342 [label="N_116 <= 0.0\nsquared_error = 0.0\nsamples = 444\nvalue = [[0.1]\n[0.0]]"] ;
341 -> 342 ;
343 [label="N_116 <= 0.0\nsquared_error = 0.0\nsamples = 7\nvalue = [[0.4]\n[0.0]]"] ;
342 -> 343 ;
344 [label="squared_error = 0.0\nsamples = 2\nvalue = [[0.0]\n[0.0]]"] ;
343 -> 344 ;
345 [label="N_120 <= 0.1\nsquared_error = 0.0\nsamples = 5\nvalue = [[0.5]\n[0.0]]"] ;
343 -> 345 ;
346 [label="squared_error = 0.0\nsamples = 1\nvalue = [[0.3]\n[0.0]]"] ;
345 -> 346 ;
347 [label="101_PV_1 <= 0.0\nsquared_error = 0.0\nsamples = 4\nvalue = [[0.5]\n[0.0]]"] ;
345 -> 347 ;
348 [label="N_116 <= 0.0\nsquared_error = 0.0\nsamples = 2\nvalue = [[0.5]\n[0.0]]"] ;
347 -> 348 ;
349 [label="squared_error = 0.0\nsamples = 1\nvalue = [[0.5]\n[0.0]]"] ;
348 -> 349 ;
350 [label="squared_error = 0.0\nsamples = 1\nvalue = [[0.5]\n[0.0]]"] ;
348 -> 350 ;
351 [label="N_102 <= 0.0\nsquared_error = 0.0\nsamples = 2\nvalue = [[0.5]\n[0.0]]"] ;
347 -> 351 ;
352 [label="squared_error = -0.0\nsamples = 1\nvalue = [[0.5]\n[0.0]]"] ;
351 -> 352 ;
353 [label="squared_error = 0.0\nsamples = 1\nvalue = [[0.5]\n[0.0]]"] ;
351 -> 353 ;
354 [label="N_106 <= 0.1\nsquared_error = 0.0\nsamples = 437\nvalue = [[0.1]\n[0.0]]"] ;
342 -> 354 ;
355 [label="N_113 <= 0.2\nsquared_error = 0.0\nsamples = 79\nvalue = [[0.1]\n[0.0]]"] ;
354 -> 355 ;
356 [label="113_PV_1 <= 0.0\nsquared_error = 0.0\nsamples = 77\nvalue = [[0.0]\n[0.0]]"] ;
355 -> 356 ;
357 [label="104_PV_1 <= 0.0\nsquared_error = 0.0\nsamples = 2\nvalue = [[0.3]\n[0.0]]"] ;
356 -> 357 ;
358 [label="squared_error = 0.0\nsamples = 1\nvalue = [[0.3]\n[0.0]]"] ;
357 -> 358 ;
359 [label="squared_error = -0.0\nsamples = 1\nvalue = [[0.3]\n[0.0]]"] ;
357 -> 359 ;
360 [label="104_PV_1 <= 0.0\nsquared_error = 0.0\nsamples = 75\nvalue = [[0.0]\n[0.0]]"] ;
356 -> 360 ;
361 [label="squared_error = 0.0\nsamples = 1\nvalue = [[0.3]\n[0.0]]"] ;
360 -> 361 ;
362 [label="N_120 <= 0.1\nsquared_error = 0.0\nsamples = 74\nvalue = [[0.0]\n[0.0]]"] ;
360 -> 362 ;
363 [label="squared_error = 0.0\nsamples = 1\nvalue = [[0.4]\n[0.0]]"] ;
362 -> 363 ;
364 [label="N_120 <= 0.1\nsquared_error = 0.0\nsamples = 73\nvalue = [[0.0]\n[0.0]]"] ;
362 -> 364 ;
365 [label="N_119 <= 0.1\nsquared_error = 0.0\nsamples = 12\nvalue = [[0.1]\n[0.0]]"] ;
364 -> 365 ;
366 [label="N_101 <= 0.1\nsquared_error = 0.0\nsamples = 2\nvalue = [[0.4]\n[0.0]]"] ;
365 -> 366 ;
367 [label="squared_error = 0.0\nsamples = 1\nvalue = [[0.5]\n[0.0]]"] ;
366 -> 367 ;
368 [label="squared_error = 0.0\nsamples = 1\nvalue = [[0.3]\n[0.0]]"] ;
366 -> 368 ;
369 [label="104_PV_1 <= 0.0\nsquared_error = 0.0\nsamples = 10\nvalue = [[0.0]\n[0.0]]"] ;
365 -> 369 ;
370 [label="N_106 <= 0.1\nsquared_error = 0.0\nsamples = 4\nvalue = [[0.1]\n[0.0]]"] ;
369 -> 370 ;
371 [label="N_118 <= 0.2\nsquared_error = 0.0\nsamples = 3\nvalue = [[0.1]\n[0.0]]"] ;
370 -> 371 ;
372 [label="N_116 <= 0.1\nsquared_error = 0.0\nsamples = 2\nvalue = [[0.1]\n[0.0]]"] ;
371 -> 372 ;
373 [label="squared_error = 0.0\nsamples = 1\nvalue = [[0.1]\n[0.0]]"] ;
372 -> 373 ;
374 [label="squared_error = -0.0\nsamples = 1\nvalue = [[0.1]\n[0.0]]"] ;
372 -> 374 ;
375 [label="squared_error = 0.0\nsamples = 1\nvalue = [[0.2]\n[0.0]]"] ;
371 -> 375 ;
376 [label="squared_error = 0.0\nsamples = 1\nvalue = [[0.0]\n[0.0]]"] ;
370 -> 376 ;
377 [label="squared_error = -0.0\nsamples = 6\nvalue = [[0.0]\n[0.0]]"] ;
369 -> 377 ;
378 [label="122_WIND_1 <= 0.3\nsquared_error = 0.0\nsamples = 61\nvalue = [[0.0]\n[0.0]]"] ;
364 -> 378 ;
379 [label="N_118 <= 0.2\nsquared_error = 0.0\nsamples = 15\nvalue = [[0.1]\n[0.0]]"] ;
378 -> 379 ;
380 [label="122_WIND_1 <= 0.3\nsquared_error = 0.0\nsamples = 13\nvalue = [[0.0]\n[0.0]]"] ;
379 -> 380 ;
381 [label="113_PV_1 <= 0.1\nsquared_error = 0.0\nsamples = 11\nvalue = [[0.0]\n[0.0]]"] ;
380 -> 381 ;
382 [label="squared_error = 0.0\nsamples = 10\nvalue = [[0.0]\n[0.0]]"] ;
381 -> 382 ;
383 [label="squared_error = 0.0\nsamples = 1\nvalue = [[0.1]\n[0.0]]"] ;
381 -> 383 ;
384 [label="101_PV_2 <= 0.0\nsquared_error = 0.0\nsamples = 2\nvalue = [[0.1]\n[0.0]]"] ;
380 -> 384 ;
385 [label="squared_error = 0.0\nsamples = 1\nvalue = [[0.1]\n[0.0]]"] ;
384 -> 385 ;
386 [label="squared_error = 0.0\nsamples = 1\nvalue = [[0.1]\n[0.0]]"] ;
384 -> 386 ;
387 [label="118_RTPV_5 <= 0.0\nsquared_error = 0.0\nsamples = 2\nvalue = [[0.1]\n[0.0]]"] ;
379 -> 387 ;
388 [label="squared_error = 0.0\nsamples = 1\nvalue = [[0.1]\n[0.0]]"] ;
387 -> 388 ;
389 [label="squared_error = -0.0\nsamples = 1\nvalue = [[0.2]\n[0.0]]"] ;
387 -> 389 ;
390 [label="N_106 <= 0.0\nsquared_error = 0.0\nsamples = 46\nvalue = [[0.0]\n[0.0]]"] ;
378 -> 390 ;
391 [label="squared_error = 0.0\nsamples = 1\nvalue = [[0.2]\n[0.0]]"] ;
390 -> 391 ;
392 [label="N_105 <= 0.0\nsquared_error = 0.0\nsamples = 45\nvalue = [[0.0]\n[0.0]]"] ;
390 -> 392 ;
393 [label="squared_error = 0.0\nsamples = 1\nvalue = [[0.1]\n[0.0]]"] ;
392 -> 393 ;
394 [label="104_PV_1 <= 0.0\nsquared_error = 0.0\nsamples = 44\nvalue = [[0.0]\n[0.0]]"] ;
392 -> 394 ;
395 [label="113_PV_1 <= 0.0\nsquared_error = 0.0\nsamples = 7\nvalue = [[0.0]\n[0.0]]"] ;
394 -> 395 ;
396 [label="squared_error = 0.0\nsamples = 1\nvalue = [[0.2]\n[0.0]]"] ;
395 -> 396 ;
397 [label="122_WIND_1 <= 0.5\nsquared_error = 0.0\nsamples = 6\nvalue = [[0.0]\n[0.0]]"] ;
395 -> 397 ;
398 [label="squared_error = 0.0\nsamples = 1\nvalue = [[0.0]\n[0.0]]"] ;
397 -> 398 ;
399 [label="squared_error = 0.0\nsamples = 5\nvalue = [[0.0]\n[0.0]]"] ;
397 -> 399 ;
400 [label="N_103 <= 0.1\nsquared_error = 0.0\nsamples = 37\nvalue = [[0.0]\n[0.0]]"] ;
394 -> 400 ;
401 [label="squared_error = 0.0\nsamples = 34\nvalue = [[0.0]\n[0.0]]"] ;
400 -> 401 ;
402 [label="N_107 <= 0.1\nsquared_error = 0.0\nsamples = 3\nvalue = [[0.0]\n[0.0]]"] ;
400 -> 402 ;
403 [label="squared_error = 0.0\nsamples = 1\nvalue = [[0.1]\n[0.0]]"] ;
402 -> 403 ;
404 [label="squared_error = 0.0\nsamples = 2\nvalue = [[0.0]\n[0.0]]"] ;
402 -> 404 ;
405 [label="N_115 <= 0.2\nsquared_error = 0.0\nsamples = 2\nvalue = [[0.3]\n[0.0]]"] ;
355 -> 405 ;
406 [label="squared_error = 0.0\nsamples = 1\nvalue = [[0.3]\n[0.0]]"] ;
405 -> 406 ;
407 [label="squared_error = -0.0\nsamples = 1\nvalue = [[0.3]\n[0.0]]"] ;
405 -> 407 ;
408 [label="N_118 <= 0.2\nsquared_error = 0.0\nsamples = 358\nvalue = [[0.1]\n[0.0]]"] ;
354 -> 408 ;
409 [label="N_118 <= 0.1\nsquared_error = 0.0\nsamples = 7\nvalue = [[0.4]\n[0.0]]"] ;
408 -> 409 ;
410 [label="118_RTPV_6 <= 0.0\nsquared_error = 0.0\nsamples = 2\nvalue = [[0.1]\n[0.0]]"] ;
409 -> 410 ;
411 [label="squared_error = 0.0\nsamples = 1\nvalue = [[0.0]\n[0.0]]"] ;
410 -> 411 ;
412 [label="squared_error = 0.0\nsamples = 1\nvalue = [[0.1]\n[0.0]]"] ;
410 -> 412 ;
413 [label="103_PV_1 <= 0.0\nsquared_error = 0.0\nsamples = 5\nvalue = [[0.4]\n[0.0]]"] ;
409 -> 413 ;
414 [label="118_RTPV_3 <= 0.0\nsquared_error = 0.0\nsamples = 3\nvalue = [[0.5]\n[0.0]]"] ;
413 -> 414 ;
415 [label="squared_error = 0.0\nsamples = 1\nvalue = [[0.5]\n[0.0]]"] ;
414 -> 415 ;
416 [label="118_RTPV_7 <= 0.0\nsquared_error = 0.0\nsamples = 2\nvalue = [[0.6]\n[0.0]]"] ;
414 -> 416 ;
417 [label="squared_error = 0.0\nsamples = 1\nvalue = [[0.6]\n[0.0]]"] ;
416 -> 417 ;
418 [label="squared_error = -0.0\nsamples = 1\nvalue = [[0.5]\n[0.0]]"] ;
416 -> 418 ;
419 [label="N_110 <= 0.1\nsquared_error = 0.0\nsamples = 2\nvalue = [[0.3]\n[0.0]]"] ;
413 -> 419 ;
420 [label="squared_error = 0.0\nsamples = 1\nvalue = [[0.3]\n[0.0]]"] ;
419 -> 420 ;
421 [label="squared_error = 0.0\nsamples = 1\nvalue = [[0.3]\n[0.0]]"] ;
419 -> 421 ;
422 [label="113_PV_1 <= 0.2\nsquared_error = 0.0\nsamples = 351\nvalue = [[0.1]\n[0.0]]"] ;
408 -> 422 ;
423 [label="122_WIND_1 <= 0.6\nsquared_error = 0.0\nsamples = 348\nvalue = [[0.1]\n[0.0]]"] ;
422 -> 423 ;
424 [label="N_102 <= 0.1\nsquared_error = 0.0\nsamples = 131\nvalue = [[0.1]\n[0.0]]"] ;
423 -> 424 ;
425 [label="N_113 <= 0.2\nsquared_error = 0.0\nsamples = 127\nvalue = [[0.1]\n[0.0]]"] ;
424 -> 425 ;
426 [label="N_107 <= 0.1\nsquared_error = 0.0\nsamples = 123\nvalue = [[0.1]\n[0.0]]"] ;
425 -> 426 ;
427 [label="N_115 <= 0.1\nsquared_error = 0.0\nsamples = 122\nvalue = [[0.1]\n[0.0]]"] ;
426 -> 427 ;
428 [label="N_108 <= 0.1\nsquared_error = 0.0\nsamples = 2\nvalue = [[0.4]\n[0.0]]"] ;
427 -> 428 ;
429 [label="squared_error = 0.0\nsamples = 1\nvalue = [[0.4]\n[0.0]]"] ;
428 -> 429 ;
430 [label="squared_error = 0.0\nsamples = 1\nvalue = [[0.5]\n[0.0]]"] ;
428 -> 430 ;
431 [label="N_120 <= 0.1\nsquared_error = 0.0\nsamples = 120\nvalue = [[0.1]\n[0.0]]"] ;
427 -> 431 ;
432 [label="N_116 <= 0.1\nsquared_error = 0.0\nsamples = 28\nvalue = [[0.1]\n[0.0]]"] ;
431 -> 432 ;
433 [label="N_104 <= 0.0\nsquared_error = 0.0\nsamples = 24\nvalue = [[0.1]\n[0.0]]"] ;
432 -> 433 ;
434 [label="N_104 <= 0.0\nsquared_error = 0.0\nsamples = 11\nvalue = [[0.2]\n[0.0]]"] ;
433 -> 434 ;
435 [label="N_105 <= 0.0\nsquared_error = 0.0\nsamples = 8\nvalue = [[0.1]\n[0.0]]"] ;
434 -> 435 ;
436 [label="squared_error = 0.0\nsamples = 4\nvalue = [[0.0]\n[0.0]]"] ;
435 -> 436 ;
437 [label="102_PV_1 <= 0.0\nsquared_error = 0.0\nsamples = 4\nvalue = [[0.2]\n[0.0]]"] ;
435 -> 437 ;
438 [label="N_101 <= 0.0\nsquared_error = 0.0\nsamples = 2\nvalue = [[0.2]\n[0.0]]"] ;
437 -> 438 ;
439 [label="squared_error = 0.0\nsamples = 1\nvalue = [[0.1]\n[0.0]]"] ;
438 -> 439 ;
440 [label="squared_error = 0.0\nsamples = 1\nvalue = [[0.2]\n[0.0]]"] ;
438 -> 440 ;
441 [label="N_118 <= 0.2\nsquared_error = 0.0\nsamples = 2\nvalue = [[0.3]\n[0.0]]"] ;
437 -> 441 ;
442 [label="squared_error = 0.0\nsamples = 1\nvalue = [[0.3]\n[0.0]]"] ;
441 -> 442 ;
443 [label="squared_error = 0.0\nsamples = 1\nvalue = [[0.3]\n[0.0]]"] ;
441 -> 443 ;
444 [label="122_WIND_1 <= 0.4\nsquared_error = 0.0\nsamples = 3\nvalue = [[0.4]\n[0.0]]"] ;
434 -> 444 ;
445 [label="N_116 <= 0.1\nsquared_error = 0.0\nsamples = 2\nvalue = [[0.4]\n[0.0]]"] ;
444 -> 445 ;
446 [label="squared_error = -0.0\nsamples = 1\nvalue = [[0.3]\n[0.0]]"] ;
445 -> 446 ;
447 [label="squared_error = 0.0\nsamples = 1\nvalue = [[0.4]\n[0.0]]"] ;
445 -> 447 ;
448 [label="squared_error = -0.0\nsamples = 1\nvalue = [[0.4]\n[0.0]]"] ;
444 -> 448 ;
449 [label="N_109 <= 0.1\nsquared_error = 0.0\nsamples = 13\nvalue = [[0.0]\n[0.0]]"] ;
433 -> 449 ;
450 [label="squared_error = 0.0\nsamples = 1\nvalue = [[0.2]\n[0.0]]"] ;
449 -> 450 ;
451 [label="N_120 <= 0.1\nsquared_error = 0.0\nsamples = 12\nvalue = [[0.0]\n[0.0]]"] ;
449 -> 451 ;
452 [label="squared_error = 0.0\nsamples = 11\nvalue = [[0.0]\n[0.0]]"] ;
451 -> 452 ;
453 [label="squared_error = 0.0\nsamples = 1\nvalue = [[0.1]\n[0.0]]"] ;
451 -> 453 ;
454 [label="118_RTPV_1 <= 0.0\nsquared_error = 0.0\nsamples = 4\nvalue = [[0.3]\n[0.0]]"] ;
432 -> 454 ;
455 [label="118_RTPV_1 <= 0.0\nsquared_error = 0.0\nsamples = 2\nvalue = [[0.3]\n[0.0]]"] ;
454 -> 455 ;
456 [label="squared_error = -0.0\nsamples = 1\nvalue = [[0.3]\n[0.0]]"] ;
455 -> 456 ;
457 [label="squared_error = -0.0\nsamples = 1\nvalue = [[0.3]\n[0.0]]"] ;
455 -> 457 ;
458 [label="118_RTPV_7 <= 0.0\nsquared_error = 0.0\nsamples = 2\nvalue = [[0.4]\n[0.0]]"] ;
454 -> 458 ;
459 [label="squared_error = 0.0\nsamples = 1\nvalue = [[0.4]\n[0.0]]"] ;
458 -> 459 ;
460 [label="squared_error = -0.0\nsamples = 1\nvalue = [[0.4]\n[0.0]]"] ;
458 -> 460 ;
461 [label="103_PV_1 <= 0.2\nsquared_error = 0.0\nsamples = 92\nvalue = [[0.0]\n[0.0]]"] ;
431 -> 461 ;
462 [label="N_105 <= 0.1\nsquared_error = 0.0\nsamples = 91\nvalue = [[0.0]\n[0.0]]"] ;
461 -> 462 ;
463 [label="104_PV_1 <= 0.0\nsquared_error = 0.0\nsamples = 90\nvalue = [[0.0]\n[0.0]]"] ;
462 -> 463 ;
464 [label="101_PV_4 <= 0.0\nsquared_error = 0.0\nsamples = 7\nvalue = [[0.2]\n[0.0]]"] ;
463 -> 464 ;
465 [label="squared_error = 0.0\nsamples = 5\nvalue = [[0.0]\n[0.0]]"] ;
464 -> 465 ;
466 [label="103_PV_1 <= 0.1\nsquared_error = 0.0\nsamples = 2\nvalue = [[0.4]\n[0.0]]"] ;
464 -> 466 ;
467 [label="squared_error = -0.0\nsamples = 1\nvalue = [[0.3]\n[0.0]]"] ;
466 -> 467 ;
468 [label="squared_error = 0.0\nsamples = 1\nvalue = [[0.4]\n[0.0]]"] ;
466 -> 468 ;
469 [label="N_108 <= 0.1\nsquared_error = 0.0\nsamples = 83\nvalue = [[0.0]\n[0.0]]"] ;
463 -> 469 ;
470 [label="squared_error = 0.0\nsamples = 1\nvalue = [[0.3]\n[0.0]]"] ;
469 -> 470 ;
471 [label="N_114 <= 0.1\nsquared_error = 0.0\nsamples = 82\nvalue = [[0.0]\n[0.0]]"] ;
469 -> 471 ;
472 [label="N_104 <= 0.1\nsquared_error = 0.0\nsamples = 26\nvalue = [[0.1]\n[0.0]]"] ;
471 -> 472 ;
473 [label="N_114 <= 0.1\nsquared_error = 0.0\nsamples = 24\nvalue = [[0.0]\n[0.0]]"] ;
472 -> 473 ;
474 [label="N_110 <= 0.1\nsquared_error = 0.0\nsamples = 21\nvalue = [[0.0]\n[0.0]]"] ;
473 -> 474 ;
475 [label="N_119 <= 0.1\nsquared_error = 0.0\nsamples = 19\nvalue = [[0.0]\n[0.0]]"] ;
474 -> 475 ;
476 [label="122_WIND_1 <= 0.2\nsquared_error = 0.0\nsamples = 3\nvalue = [[0.1]\n[0.0]]"] ;
475 -> 476 ;
477 [label="squared_error = 0.0\nsamples = 1\nvalue = [[0.0]\n[0.0]]"] ;
476 -> 477 ;
478 [label="118_RTPV_9 <= 0.0\nsquared_error = 0.0\nsamples = 2\nvalue = [[0.1]\n[0.0]]"] ;
476 -> 478 ;
479 [label="squared_error = 0.0\nsamples = 1\nvalue = [[0.1]\n[0.0]]"] ;
478 -> 479 ;
480 [label="squared_error = -0.0\nsamples = 1\nvalue = [[0.1]\n[0.0]]"] ;
478 -> 480 ;
481 [label="101_PV_1 <= 0.0\nsquared_error = 0.0\nsamples = 16\nvalue = [[0.0]\n[0.0]]"] ;
475 -> 481 ;
482 [label="squared_error = 0.0\nsamples = 1\nvalue = [[0.0]\n[0.0]]"] ;
481 -> 482 ;
483 [label="squared_error = 0.0\nsamples = 15\nvalue = [[0.0]\n[0.0]]"] ;
481 -> 483 ;
484 [label="102_PV_2 <= 0.0\nsquared_error = 0.0\nsamples = 2\nvalue = [[0.2]\n[0.0]]"] ;
474 -> 484 ;
485 [label="squared_error = 0.0\nsamples = 1\nvalue = [[0.0]\n[0.0]]"] ;
484 -> 485 ;
486 [label="squared_error = 0.0\nsamples = 1\nvalue = [[0.4]\n[0.0]]"] ;
484 -> 486 ;
487 [label="118_RTPV_8 <= 0.0\nsquared_error = 0.0\nsamples = 3\nvalue = [[0.2]\n[0.0]]"] ;
473 -> 487 ;
488 [label="118_RTPV_10 <= 0.0\nsquared_error = 0.0\nsamples = 2\nvalue = [[0.3]\n[0.0]]"] ;
487 -> 488 ;
489 [label="squared_error = 0.0\nsamples = 1\nvalue = [[0.3]\n[0.0]]"] ;
488 -> 489 ;
490 [label="squared_error = 0.0\nsamples = 1\nvalue = [[0.3]\n[0.0]]"] ;
488 -> 490 ;
491 [label="squared_error = 0.0\nsamples = 1\nvalue = [[0.0]\n[0.0]]"] ;
487 -> 491 ;
492 [label="N_118 <= 0.2\nsquared_error = 0.0\nsamples = 2\nvalue = [[0.3]\n[0.0]]"] ;
472 -> 492 ;
493 [label="squared_error = -0.0\nsamples = 1\nvalue = [[0.3]\n[0.0]]"] ;
492 -> 493 ;
494 [label="squared_error = 0.0\nsamples = 1\nvalue = [[0.3]\n[0.0]]"] ;
492 -> 494 ;
495 [label="N_103 <= 0.2\nsquared_error = 0.0\nsamples = 56\nvalue = [[0.0]\n[0.0]]"] ;
471 -> 495 ;
496 [label="104_PV_1 <= 0.0\nsquared_error = 0.0\nsamples = 54\nvalue = [[0.0]\n[0.0]]"] ;
495 -> 496 ;
497 [label="104_PV_1 <= 0.0\nsquared_error = 0.0\nsamples = 10\nvalue = [[0.0]\n[0.0]]"] ;
496 -> 497 ;
498 [label="N_108 <= 0.1\nsquared_error = 0.0\nsamples = 9\nvalue = [[0.0]\n[0.0]]"] ;
497 -> 498 ;
499 [label="squared_error = 0.0\nsamples = 8\nvalue = [[0.0]\n[0.0]]"] ;
498 -> 499 ;
500 [label="squared_error = 0.0\nsamples = 1\nvalue = [[0.1]\n[0.0]]"] ;
498 -> 500 ;
501 [label="squared_error = 0.0\nsamples = 1\nvalue = [[0.3]\n[0.0]]"] ;
497 -> 501 ;
502 [label="N_109 <= 0.1\nsquared_error = 0.0\nsamples = 44\nvalue = [[0.0]\n[0.0]]"] ;
496 -> 502 ;
503 [label="squared_error = 0.0\nsamples = 1\nvalue = [[0.0]\n[0.0]]"] ;
502 -> 503 ;
504 [label="squared_error = 0.0\nsamples = 43\nvalue = [[0.0]\n[0.0]]"] ;
502 -> 504 ;
505 [label="104_PV_1 <= 0.0\nsquared_error = 0.0\nsamples = 2\nvalue = [[0.1]\n[0.0]]"] ;
495 -> 505 ;
506 [label="squared_error = 0.0\nsamples = 1\nvalue = [[0.0]\n[0.0]]"] ;
505 -> 506 ;
507 [label="squared_error = 0.0\nsamples = 1\nvalue = [[0.4]\n[0.0]]"] ;
505 -> 507 ;
508 [label="squared_error = -0.0\nsamples = 1\nvalue = [[0.3]\n[0.0]]"] ;
462 -> 508 ;
509 [label="squared_error = 0.0\nsamples = 1\nvalue = [[0.4]\n[0.0]]"] ;
461 -> 509 ;
510 [label="squared_error = -0.0\nsamples = 1\nvalue = [[0.5]\n[0.0]]"] ;
426 -> 510 ;
511 [label="N_110 <= 0.1\nsquared_error = 0.0\nsamples = 4\nvalue = [[0.3]\n[0.0]]"] ;
425 -> 511 ;
512 [label="squared_error = 0.0\nsamples = 1\nvalue = [[0.3]\n[0.0]]"] ;
511 -> 512 ;
513 [label="N_118 <= 0.2\nsquared_error = 0.0\nsamples = 3\nvalue = [[0.3]\n[0.0]]"] ;
511 -> 513 ;
514 [label="squared_error = 0.0\nsamples = 1\nvalue = [[0.3]\n[0.0]]"] ;
513 -> 514 ;
515 [label="118_RTPV_2 <= 0.0\nsquared_error = 0.0\nsamples = 2\nvalue = [[0.3]\n[0.0]]"] ;
513 -> 515 ;
516 [label="squared_error = 0.0\nsamples = 1\nvalue = [[0.3]\n[0.0]]"] ;
515 -> 516 ;
517 [label="squared_error = -0.0\nsamples = 1\nvalue = [[0.3]\n[0.0]]"] ;
515 -> 517 ;
518 [label="N_116 <= 0.1\nsquared_error = 0.0\nsamples = 4\nvalue = [[0.4]\n[0.0]]"] ;
424 -> 518 ;
519 [label="squared_error = 0.0\nsamples = 1\nvalue = [[0.4]\n[0.0]]"] ;
518 -> 519 ;
520 [label="118_RTPV_1 <= 0.0\nsquared_error = 0.0\nsamples = 3\nvalue = [[0.4]\n[0.0]]"] ;
518 -> 520 ;
521 [label="squared_error = 0.0\nsamples = 1\nvalue = [[0.4]\n[0.0]]"] ;
520 -> 521 ;
522 [label="118_RTPV_4 <= 0.0\nsquared_error = 0.0\nsamples = 2\nvalue = [[0.3]\n[0.0]]"] ;
520 -> 522 ;
523 [label="squared_error = 0.0\nsamples = 1\nvalue = [[0.3]\n[0.0]]"] ;
522 -> 523 ;
524 [label="squared_error = 0.0\nsamples = 1\nvalue = [[0.3]\n[0.0]]"] ;
522 -> 524 ;
525 [label="122_WIND_1 <= 0.6\nsquared_error = 0.0\nsamples = 217\nvalue = [[0.2]\n[0.0]]"] ;
423 -> 525 ;
526 [label="N_108 <= 0.1\nsquared_error = 0.0\nsamples = 10\nvalue = [[0.4]\n[0.0]]"] ;
525 -> 526 ;
527 [label="N_102 <= 0.1\nsquared_error = 0.0\nsamples = 3\nvalue = [[0.6]\n[0.0]]"] ;
526 -> 527 ;
528 [label="N_110 <= 0.1\nsquared_error = 0.0\nsamples = 2\nvalue = [[0.6]\n[0.0]]"] ;
527 -> 528 ;
529 [label="squared_error = 0.0\nsamples = 1\nvalue = [[0.6]\n[0.0]]"] ;
528 -> 529 ;
530 [label="squared_error = 0.0\nsamples = 1\nvalue = [[0.7]\n[0.0]]"] ;
528 -> 530 ;
531 [label="squared_error = -0.0\nsamples = 1\nvalue = [[0.5]\n[0.0]]"] ;
527 -> 531 ;
532 [label="N_114 <= 0.1\nsquared_error = 0.0\nsamples = 7\nvalue = [[0.2]\n[0.0]]"] ;
526 -> 532 ;
533 [label="N_118 <= 0.2\nsquared_error = 0.0\nsamples = 4\nvalue = [[0.4]\n[0.1]]"] ;
532 -> 533 ;
534 [label="squared_error = 0.0\nsamples = 1\nvalue = [[0.1]\n[0.0]]"] ;
533 -> 534 ;
535 [label="N_105 <= 0.0\nsquared_error = 0.0\nsamples = 3\nvalue = [[0.4]\n[0.1]]"] ;
533 -> 535 ;
536 [label="squared_error = 0.0\nsamples = 1\nvalue = [[0.4]\n[0.2]]"] ;
535 -> 536 ;
537 [label="103_PV_1 <= 0.1\nsquared_error = 0.0\nsamples = 2\nvalue = [[0.4]\n[0.0]]"] ;
535 -> 537 ;
538 [label="squared_error = 0.0\nsamples = 1\nvalue = [[0.4]\n[0.0]]"] ;
537 -> 538 ;
539 [label="squared_error = -0.0\nsamples = 1\nvalue = [[0.5]\n[0.0]]"] ;
537 -> 539 ;
540 [label="118_RTPV_3 <= 0.0\nsquared_error = 0.0\nsamples = 3\nvalue = [[0.0]\n[0.0]]"] ;
532 -> 540 ;
541 [label="squared_error = 0.0\nsamples = 2\nvalue = [[0.0]\n[0.0]]"] ;
540 -> 541 ;
542 [label="squared_error = 0.0\nsamples = 1\nvalue = [[0.0]\n[0.0]]"] ;
540 -> 542 ;
543 [label="N_107 <= 0.1\nsquared_error = 0.0\nsamples = 207\nvalue = [[0.1]\n[0.0]]"] ;
525 -> 543 ;
544 [label="122_WIND_1 <= 1.1\nsquared_error = 0.0\nsamples = 31\nvalue = [[0.1]\n[0.0]]"] ;
543 -> 544 ;
545 [label="N_106 <= 0.1\nsquared_error = 0.0\nsamples = 25\nvalue = [[0.0]\n[0.0]]"] ;
544 -> 545 ;
546 [label="N_116 <= 0.0\nsquared_error = 0.0\nsamples = 2\nvalue = [[0.3]\n[0.0]]"] ;
545 -> 546 ;
547 [label="squared_error = 0.0\nsamples = 1\nvalue = [[0.2]\n[0.0]]"] ;
546 -> 547 ;
548 [label="squared_error = 0.0\nsamples = 1\nvalue = [[0.4]\n[0.0]]"] ;
546 -> 548 ;
549 [label="103_PV_1 <= 0.2\nsquared_error = 0.0\nsamples = 23\nvalue = [[0.0]\n[0.0]]"] ;
545 -> 549 ;
550 [label="122_WIND_1 <= 0.7\nsquared_error = 0.0\nsamples = 22\nvalue = [[0.0]\n[0.0]]"] ;
549 -> 550 ;
551 [label="N_114 <= 0.1\nsquared_error = 0.0\nsamples = 3\nvalue = [[0.1]\n[0.0]]"] ;
550 -> 551 ;
552 [label="squared_error = 0.0\nsamples = 2\nvalue = [[0.0]\n[0.0]]"] ;
551 -> 552 ;
553 [label="squared_error = 0.0\nsamples = 1\nvalue = [[0.3]\n[0.0]]"] ;
551 -> 553 ;
554 [label="N_107 <= 0.1\nsquared_error = 0.0\nsamples = 19\nvalue = [[0.0]\n[0.0]]"] ;
550 -> 554 ;
555 [label="N_119 <= 0.1\nsquared_error = 0.0\nsamples = 18\nvalue = [[0.0]\n[0.0]]"] ;
554 -> 555 ;
556 [label="squared_error = 0.0\nsamples = 1\nvalue = [[0.0]\n[0.0]]"] ;
555 -> 556 ;
557 [label="squared_error = 0.0\nsamples = 17\nvalue = [[0.0]\n[0.0]]"] ;
555 -> 557 ;
558 [label="squared_error = 0.0\nsamples = 1\nvalue = [[0.0]\n[0.0]]"] ;
554 -> 558 ;
559 [label="squared_error = -0.0\nsamples = 1\nvalue = [[0.2]\n[0.0]]"] ;
549 -> 559 ;
560 [label="N_101 <= 0.1\nsquared_error = 0.0\nsamples = 6\nvalue = [[0.3]\n[0.0]]"] ;
544 -> 560 ;
561 [label="N_105 <= 0.1\nsquared_error = 0.0\nsamples = 4\nvalue = [[0.4]\n[0.0]]"] ;
560 -> 561 ;
562 [label="104_PV_1 <= 0.0\nsquared_error = 0.0\nsamples = 3\nvalue = [[0.3]\n[0.0]]"] ;
561 -> 562 ;
563 [label="squared_error = 0.0\nsamples = 1\nvalue = [[0.3]\n[0.0]]"] ;
562 -> 563 ;
564 [label="N_119 <= 0.2\nsquared_error = 0.0\nsamples = 2\nvalue = [[0.3]\n[0.0]]"] ;
562 -> 564 ;
565 [label="squared_error = 0.0\nsamples = 1\nvalue = [[0.3]\n[0.0]]"] ;
564 -> 565 ;
566 [label="squared_error = -0.0\nsamples = 1\nvalue = [[0.3]\n[0.0]]"] ;
564 -> 566 ;
567 [label="squared_error = -0.0\nsamples = 1\nvalue = [[0.4]\n[0.0]]"] ;
561 -> 567 ;
568 [label="squared_error = 0.0\nsamples = 2\nvalue = [[0.0]\n[0.0]]"] ;
560 -> 568 ;
569 [label="N_102 <= 0.1\nsquared_error = 0.0\nsamples = 176\nvalue = [[0.2]\n[0.0]]"] ;
543 -> 569 ;
570 [label="N_102 <= 0.1\nsquared_error = 0.0\nsamples = 54\nvalue = [[0.2]\n[0.0]]"] ;
569 -> 570 ;
571 [label="118_RTPV_10 <= 0.0\nsquared_error = 0.0\nsamples = 42\nvalue = [[0.2]\n[0.0]]"] ;
570 -> 571 ;
572 [label="N_104 <= 0.0\nsquared_error = 0.0\nsamples = 34\nvalue = [[0.1]\n[0.0]]"] ;
571 -> 572 ;
573 [label="N_110 <= 0.1\nsquared_error = 0.0\nsamples = 8\nvalue = [[0.3]\n[0.0]]"] ;
572 -> 573 ;
574 [label="119_PV_1 <= 0.0\nsquared_error = 0.0\nsamples = 4\nvalue = [[0.2]\n[0.0]]"] ;
573 -> 574 ;
575 [label="squared_error = 0.0\nsamples = 1\nvalue = [[0.3]\n[0.0]]"] ;
574 -> 575 ;
576 [label="101_PV_1 <= 0.0\nsquared_error = 0.0\nsamples = 3\nvalue = [[0.1]\n[0.0]]"] ;
574 -> 576 ;
577 [label="squared_error = 0.0\nsamples = 1\nvalue = [[0.0]\n[0.0]]"] ;
576 -> 577 ;
578 [label="N_107 <= 0.1\nsquared_error = 0.0\nsamples = 2\nvalue = [[0.2]\n[0.0]]"] ;
576 -> 578 ;
579 [label="squared_error = 0.0\nsamples = 1\nvalue = [[0.2]\n[0.0]]"] ;
578 -> 579 ;
580 [label="squared_error = -0.0\nsamples = 1\nvalue = [[0.2]\n[0.0]]"] ;
578 -> 580 ;
581 [label="N_116 <= 0.0\nsquared_error = 0.0\nsamples = 4\nvalue = [[0.4]\n[0.0]]"] ;
573 -> 581 ;
582 [label="squared_error = 0.0\nsamples = 1\nvalue = [[0.5]\n[0.0]]"] ;
581 -> 582 ;
583 [label="N_113 <= 0.1\nsquared_error = 0.0\nsamples = 3\nvalue = [[0.3]\n[0.0]]"] ;
581 -> 583 ;
584 [label="squared_error = 0.0\nsamples = 1\nvalue = [[0.4]\n[0.1]]"] ;
583 -> 584 ;
585 [label="104_PV_1 <= 0.0\nsquared_error = 0.0\nsamples = 2\nvalue = [[0.3]\n[0.0]]"] ;
583 -> 585 ;
586 [label="squared_error = 0.0\nsamples = 1\nvalue = [[0.3]\n[0.0]]"] ;
585 -> 586 ;
587 [label="squared_error = 0.0\nsamples = 1\nvalue = [[0.3]\n[0.0]]"] ;
585 -> 587 ;
588 [label="122_WIND_1 <= 1.0\nsquared_error = 0.0\nsamples = 26\nvalue = [[0.1]\n[0.0]]"] ;
572 -> 588 ;
589 [label="N_105 <= 0.0\nsquared_error = 0.0\nsamples = 19\nvalue = [[0.1]\n[0.0]]"] ;
588 -> 589 ;
590 [label="N_120 <= 0.1\nsquared_error = 0.0\nsamples = 3\nvalue = [[0.1]\n[0.0]]"] ;
589 -> 590 ;
591 [label="N_110 <= 0.1\nsquared_error = 0.0\nsamples = 2\nvalue = [[0.1]\n[0.0]]"] ;
590 -> 591 ;
592 [label="squared_error = 0.0\nsamples = 1\nvalue = [[0.1]\n[0.0]]"] ;
591 -> 592 ;
593 [label="squared_error = -0.0\nsamples = 1\nvalue = [[0.1]\n[0.0]]"] ;
591 -> 593 ;
594 [label="squared_error = -0.0\nsamples = 1\nvalue = [[0.2]\n[0.0]]"] ;
590 -> 594 ;
595 [label="N_113 <= 0.1\nsquared_error = 0.0\nsamples = 16\nvalue = [[0.0]\n[0.0]]"] ;
589 -> 595 ;
596 [label="squared_error = 0.0\nsamples = 1\nvalue = [[0.3]\n[0.0]]"] ;
595 -> 596 ;
597 [label="N_116 <= 0.1\nsquared_error = 0.0\nsamples = 15\nvalue = [[0.0]\n[0.0]]"] ;
595 -> 597 ;
598 [label="squared_error = 0.0\nsamples = 13\nvalue = [[0.0]\n[0.0]]"] ;
597 -> 598 ;
599 [label="118_RTPV_9 <= 0.0\nsquared_error = 0.0\nsamples = 2\nvalue = [[0.2]\n[0.0]]"] ;
597 -> 599 ;
600 [label="squared_error = 0.0\nsamples = 1\nvalue = [[0.3]\n[0.0]]"] ;
599 -> 600 ;
601 [label="squared_error = 0.0\nsamples = 1\nvalue = [[0.0]\n[0.0]]"] ;
599 -> 601 ;
602 [label="101_PV_4 <= 0.0\nsquared_error = 0.0\nsamples = 7\nvalue = [[0.2]\n[0.0]]"] ;
588 -> 602 ;
603 [label="N_104 <= 0.0\nsquared_error = 0.0\nsamples = 5\nvalue = [[0.3]\n[0.0]]"] ;
602 -> 603 ;
604 [label="squared_error = -0.0\nsamples = 1\nvalue = [[0.4]\n[0.2]]"] ;
603 -> 604 ;
605 [label="101_PV_2 <= 0.0\nsquared_error = 0.0\nsamples = 4\nvalue = [[0.3]\n[0.0]]"] ;
603 -> 605 ;
606 [label="squared_error = 0.0\nsamples = 1\nvalue = [[0.3]\n[0.0]]"] ;
605 -> 606 ;
607 [label="101_PV_1 <= 0.0\nsquared_error = 0.0\nsamples = 3\nvalue = [[0.3]\n[0.0]]"] ;
605 -> 607 ;
608 [label="101_PV_3 <= 0.0\nsquared_error = 0.0\nsamples = 2\nvalue = [[0.3]\n[0.0]]"] ;
607 -> 608 ;
609 [label="squared_error = 0.0\nsamples = 1\nvalue = [[0.3]\n[0.0]]"] ;
608 -> 609 ;
610 [label="squared_error = -0.0\nsamples = 1\nvalue = [[0.3]\n[0.0]]"] ;
608 -> 610 ;
611 [label="squared_error = -0.0\nsamples = 1\nvalue = [[0.3]\n[0.0]]"] ;
607 -> 611 ;
612 [label="squared_error = 0.0\nsamples = 2\nvalue = [[0.0]\n[0.0]]"] ;
602 -> 612 ;
613 [label="N_109 <= 0.1\nsquared_error = 0.0\nsamples = 8\nvalue = [[0.3]\n[0.0]]"] ;
571 -> 613 ;
614 [label="N_102 <= 0.1\nsquared_error = 0.0\nsamples = 3\nvalue = [[0.1]\n[0.0]]"] ;
613 -> 614 ;
615 [label="squared_error = 0.0\nsamples = 1\nvalue = [[0.3]\n[0.0]]"] ;
614 -> 615 ;
616 [label="squared_error = 0.0\nsamples = 2\nvalue = [[0.0]\n[0.0]]"] ;
614 -> 616 ;
617 [label="N_116 <= 0.1\nsquared_error = 0.0\nsamples = 5\nvalue = [[0.4]\n[0.0]]"] ;
613 -> 617 ;
618 [label="118_RTPV_1 <= 0.0\nsquared_error = 0.0\nsamples = 2\nvalue = [[0.6]\n[0.0]]"] ;
617 -> 618 ;
619 [label="squared_error = 0.0\nsamples = 1\nvalue = [[0.6]\n[0.0]]"] ;
618 -> 619 ;
620 [label="squared_error = -0.0\nsamples = 1\nvalue = [[0.5]\n[0.0]]"] ;
618 -> 620 ;
621 [label="N_119 <= 0.1\nsquared_error = 0.0\nsamples = 3\nvalue = [[0.4]\n[0.0]]"] ;
617 -> 621 ;
622 [label="N_103 <= 0.1\nsquared_error = 0.0\nsamples = 2\nvalue = [[0.4]\n[0.0]]"] ;
621 -> 622 ;
623 [label="squared_error = 0.0\nsamples = 1\nvalue = [[0.4]\n[0.0]]"] ;
622 -> 623 ;
624 [label="squared_error = 0.0\nsamples = 1\nvalue = [[0.4]\n[0.0]]"] ;
622 -> 624 ;
625 [label="squared_error = 0.0\nsamples = 1\nvalue = [[0.4]\n[0.0]]"] ;
621 -> 625 ;
626 [label="N_106 <= 0.1\nsquared_error = 0.0\nsamples = 12\nvalue = [[0.4]\n[0.0]]"] ;
570 -> 626 ;
627 [label="102_PV_1 <= 0.0\nsquared_error = 0.0\nsamples = 9\nvalue = [[0.3]\n[0.0]]"] ;
626 -> 627 ;
628 [label="N_105 <= 0.0\nsquared_error = 0.0\nsamples = 7\nvalue = [[0.3]\n[0.0]]"] ;
627 -> 628 ;
629 [label="squared_error = 0.0\nsamples = 1\nvalue = [[0.4]\n[0.0]]"] ;
628 -> 629 ;
630 [label="N_118 <= 0.2\nsquared_error = 0.0\nsamples = 6\nvalue = [[0.3]\n[0.0]]"] ;
628 -> 630 ;
631 [label="122_WIND_1 <= 0.8\nsquared_error = 0.0\nsamples = 3\nvalue = [[0.3]\n[0.0]]"] ;
630 -> 631 ;
632 [label="N_103 <= 0.1\nsquared_error = 0.0\nsamples = 2\nvalue = [[0.3]\n[0.0]]"] ;
631 -> 632 ;
633 [label="squared_error = 0.0\nsamples = 1\nvalue = [[0.3]\n[0.0]]"] ;
632 -> 633 ;
634 [label="squared_error = -0.0\nsamples = 1\nvalue = [[0.3]\n[0.0]]"] ;
632 -> 634 ;
635 [label="squared_error = 0.0\nsamples = 1\nvalue = [[0.3]\n[0.0]]"] ;
631 -> 635 ;
636 [label="102_PV_1 <= 0.0\nsquared_error = 0.0\nsamples = 3\nvalue = [[0.3]\n[0.0]]"] ;
630 -> 636 ;
637 [label="squared_error = 0.0\nsamples = 1\nvalue = [[0.3]\n[0.0]]"] ;
636 -> 637 ;
638 [label="101_PV_2 <= 0.0\nsquared_error = 0.0\nsamples = 2\nvalue = [[0.3]\n[0.0]]"] ;
636 -> 638 ;
639 [label="squared_error = 0.0\nsamples = 1\nvalue = [[0.3]\n[0.0]]"] ;
638 -> 639 ;
640 [label="squared_error = 0.0\nsamples = 1\nvalue = [[0.3]\n[0.0]]"] ;
638 -> 640 ;
641 [label="103_PV_1 <= 0.0\nsquared_error = 0.0\nsamples = 2\nvalue = [[0.3]\n[0.0]]"] ;
627 -> 641 ;
642 [label="squared_error = 0.0\nsamples = 1\nvalue = [[0.3]\n[0.0]]"] ;
641 -> 642 ;
643 [label="squared_error = 0.0\nsamples = 1\nvalue = [[0.3]\n[0.0]]"] ;
641 -> 643 ;
644 [label="122_WIND_1 <= 0.9\nsquared_error = 0.0\nsamples = 3\nvalue = [[0.4]\n[0.0]]"] ;
626 -> 644 ;
645 [label="squared_error = 0.0\nsamples = 1\nvalue = [[0.6]\n[0.0]]"] ;
644 -> 645 ;
646 [label="N_109 <= 0.1\nsquared_error = 0.0\nsamples = 2\nvalue = [[0.3]\n[0.0]]"] ;
644 -> 646 ;
647 [label="squared_error = 0.0\nsamples = 1\nvalue = [[0.3]\n[0.0]]"] ;
646 -> 647 ;
648 [label="squared_error = 0.0\nsamples = 1\nvalue = [[0.3]\n[0.0]]"] ;
646 -> 648 ;
649 [label="N_120 <= 0.1\nsquared_error = 0.0\nsamples = 122\nvalue = [[0.1]\n[0.0]]"] ;
569 -> 649 ;
650 [label="N_104 <= 0.0\nsquared_error = 0.0\nsamples = 66\nvalue = [[0.1]\n[0.0]]"] ;
649 -> 650 ;
651 [label="N_120 <= 0.1\nsquared_error = 0.0\nsamples = 20\nvalue = [[0.2]\n[0.0]]"] ;
650 -> 651 ;
652 [label="N_109 <= 0.1\nsquared_error = 0.0\nsamples = 15\nvalue = [[0.3]\n[0.0]]"] ;
651 -> 652 ;
653 [label="N_109 <= 0.1\nsquared_error = 0.0\nsamples = 13\nvalue = [[0.3]\n[0.0]]"] ;
652 -> 653 ;
654 [label="squared_error = 0.0\nsamples = 1\nvalue = [[0.0]\n[0.0]]"] ;
653 -> 654 ;
655 [label="N_101 <= 0.1\nsquared_error = 0.0\nsamples = 12\nvalue = [[0.3]\n[0.0]]"] ;
653 -> 655 ;
656 [label="N_105 <= 0.0\nsquared_error = 0.0\nsamples = 11\nvalue = [[0.3]\n[0.0]]"] ;
655 -> 656 ;
657 [label="118_RTPV_3 <= 0.0\nsquared_error = 0.0\nsamples = 2\nvalue = [[0.3]\n[0.0]]"] ;
656 -> 657 ;
658 [label="squared_error = 0.0\nsamples = 1\nvalue = [[0.2]\n[0.0]]"] ;
657 -> 658 ;
659 [label="squared_error = 0.0\nsamples = 1\nvalue = [[0.3]\n[0.0]]"] ;
657 -> 659 ;
660 [label="N_103 <= 0.1\nsquared_error = 0.0\nsamples = 9\nvalue = [[0.3]\n[0.0]]"] ;
656 -> 660 ;
661 [label="squared_error = 0.0\nsamples = 1\nvalue = [[0.4]\n[0.0]]"] ;
660 -> 661 ;
662 [label="N_108 <= 0.1\nsquared_error = 0.0\nsamples = 8\nvalue = [[0.3]\n[0.0]]"] ;
660 -> 662 ;
663 [label="N_119 <= 0.1\nsquared_error = 0.0\nsamples = 7\nvalue = [[0.3]\n[0.0]]"] ;
662 -> 663 ;
664 [label="N_103 <= 0.1\nsquared_error = 0.0\nsamples = 4\nvalue = [[0.3]\n[0.0]]"] ;
663 -> 664 ;
665 [label="N_107 <= 0.1\nsquared_error = 0.0\nsamples = 2\nvalue = [[0.3]\n[0.0]]"] ;
664 -> 665 ;
666 [label="squared_error = 0.0\nsamples = 1\nvalue = [[0.3]\n[0.0]]"] ;
665 -> 666 ;
667 [label="squared_error = 0.0\nsamples = 1\nvalue = [[0.3]\n[0.0]]"] ;
665 -> 667 ;
668 [label="N_114 <= 0.1\nsquared_error = 0.0\nsamples = 2\nvalue = [[0.3]\n[0.0]]"] ;
664 -> 668 ;
669 [label="squared_error = 0.0\nsamples = 1\nvalue = [[0.3]\n[0.0]]"] ;
668 -> 669 ;
670 [label="squared_error = 0.0\nsamples = 1\nvalue = [[0.3]\n[0.0]]"] ;
668 -> 670 ;
671 [label="N_113 <= 0.2\nsquared_error = 0.0\nsamples = 3\nvalue = [[0.3]\n[0.0]]"] ;
663 -> 671 ;
672 [label="102_PV_2 <= 0.0\nsquared_error = 0.0\nsamples = 2\nvalue = [[0.3]\n[0.0]]"] ;
671 -> 672 ;
673 [label="squared_error = 0.0\nsamples = 1\nvalue = [[0.3]\n[0.0]]"] ;
672 -> 673 ;
674 [label="squared_error = 0.0\nsamples = 1\nvalue = [[0.3]\n[0.0]]"] ;
672 -> 674 ;
675 [label="squared_error = -0.0\nsamples = 1\nvalue = [[0.3]\n[0.0]]"] ;
671 -> 675 ;
676 [label="squared_error = 0.0\nsamples = 1\nvalue = [[0.3]\n[0.0]]"] ;
662 -> 676 ;
677 [label="squared_error = -0.0\nsamples = 1\nvalue = [[0.5]\n[0.0]]"] ;
655 -> 677 ;
678 [label="squared_error = 0.0\nsamples = 2\nvalue = [[0.0]\n[0.0]]"] ;
652 -> 678 ;
679 [label="squared_error = 0.0\nsamples = 5\nvalue = [[0.0]\n[0.0]]"] ;
651 -> 679 ;
680 [label="N_119 <= 0.1\nsquared_error = 0.0\nsamples = 46\nvalue = [[0.0]\n[0.0]]"] ;
650 -> 680 ;
681 [label="squared_error = 0.0\nsamples = 1\nvalue = [[0.5]\n[0.0]]"] ;
680 -> 681 ;
682 [label="N_103 <= 0.2\nsquared_error = 0.0\nsamples = 45\nvalue = [[0.0]\n[0.0]]"] ;
680 -> 682 ;
683 [label="N_105 <= 0.1\nsquared_error = 0.0\nsamples = 44\nvalue = [[0.0]\n[0.0]]"] ;
682 -> 683 ;
684 [label="N_114 <= 0.1\nsquared_error = 0.0\nsamples = 43\nvalue = [[0.0]\n[0.0]]"] ;
683 -> 684 ;
685 [label="N_118 <= 0.2\nsquared_error = 0.0\nsamples = 11\nvalue = [[0.1]\n[0.0]]"] ;
684 -> 685 ;
686 [label="squared_error = -0.0\nsamples = 7\nvalue = [[0.0]\n[0.0]]"] ;
685 -> 686 ;
687 [label="122_WIND_1 <= 0.9\nsquared_error = 0.0\nsamples = 4\nvalue = [[0.2]\n[0.0]]"] ;
685 -> 687 ;
688 [label="squared_error = 0.0\nsamples = 1\nvalue = [[0.1]\n[0.0]]"] ;
687 -> 688 ;
689 [label="N_102 <= 0.1\nsquared_error = 0.0\nsamples = 3\nvalue = [[0.4]\n[0.0]]"] ;
687 -> 689 ;
690 [label="118_RTPV_6 <= 0.0\nsquared_error = 0.0\nsamples = 2\nvalue = [[0.4]\n[0.0]]"] ;
689 -> 690 ;
691 [label="squared_error = 0.0\nsamples = 1\nvalue = [[0.4]\n[0.0]]"] ;
690 -> 691 ;
692 [label="squared_error = 0.0\nsamples = 1\nvalue = [[0.4]\n[0.0]]"] ;
690 -> 692 ;
693 [label="squared_error = -0.0\nsamples = 1\nvalue = [[0.3]\n[0.0]]"] ;
689 -> 693 ;
694 [label="N_101 <= 0.1\nsquared_error = 0.0\nsamples = 32\nvalue = [[0.0]\n[0.0]]"] ;
684 -> 694 ;
695 [label="N_120 <= 0.1\nsquared_error = 0.0\nsamples = 30\nvalue = [[0.0]\n[0.0]]"] ;
694 -> 695 ;
696 [label="squared_error = 0.0\nsamples = 28\nvalue = [[0.0]\n[0.0]]"] ;
695 -> 696 ;
697 [label="118_RTPV_6 <= 0.0\nsquared_error = 0.0\nsamples = 2\nvalue = [[0.1]\n[0.0]]"] ;
695 -> 697 ;
698 [label="squared_error = 0.0\nsamples = 1\nvalue = [[0.1]\n[0.0]]"] ;
697 -> 698 ;
699 [label="squared_error = 0.0\nsamples = 1\nvalue = [[0.0]\n[0.0]]"] ;
697 -> 699 ;
700 [label="N_115 <= 0.3\nsquared_error = 0.0\nsamples = 2\nvalue = [[0.2]\n[0.0]]"] ;
694 -> 700 ;
701 [label="squared_error = 0.0\nsamples = 1\nvalue = [[0.4]\n[0.0]]"] ;
700 -> 701 ;
702 [label="squared_error = 0.0\nsamples = 1\nvalue = [[0.0]\n[0.0]]"] ;
700 -> 702 ;
703 [label="squared_error = 0.0\nsamples = 1\nvalue = [[0.4]\n[0.0]]"] ;
683 -> 703 ;
704 [label="squared_error = 0.0\nsamples = 1\nvalue = [[0.3]\n[0.0]]"] ;
682 -> 704 ;
705 [label="N_106 <= 0.1\nsquared_error = 0.0\nsamples = 56\nvalue = [[0.2]\n[0.0]]"] ;
649 -> 705 ;
706 [label="N_107 <= 0.1\nsquared_error = 0.0\nsamples = 37\nvalue = [[0.2]\n[0.0]]"] ;
705 -> 706 ;
707 [label="104_PV_1 <= 0.0\nsquared_error = 0.0\nsamples = 19\nvalue = [[0.2]\n[0.0]]"] ;
706 -> 707 ;
708 [label="N_120 <= 0.1\nsquared_error = 0.0\nsamples = 10\nvalue = [[0.1]\n[0.0]]"] ;
707 -> 708 ;
709 [label="squared_error = -0.0\nsamples = 8\nvalue = [[0.0]\n[0.0]]"] ;
708 -> 709 ;
710 [label="118_RTPV_7 <= 0.0\nsquared_error = 0.0\nsamples = 2\nvalue = [[0.5]\n[0.0]]"] ;
708 -> 710 ;
711 [label="squared_error = 0.0\nsamples = 1\nvalue = [[0.4]\n[0.0]]"] ;
710 -> 711 ;
712 [label="squared_error = -0.0\nsamples = 1\nvalue = [[0.5]\n[0.0]]"] ;
710 -> 712 ;
713 [label="N_103 <= 0.1\nsquared_error = 0.0\nsamples = 9\nvalue = [[0.3]\n[0.0]]"] ;
707 -> 713 ;
714 [label="squared_error = 0.0\nsamples = 2\nvalue = [[0.0]\n[0.0]]"] ;
713 -> 714 ;
715 [label="122_WIND_1 <= 0.7\nsquared_error = 0.0\nsamples = 7\nvalue = [[0.4]\n[0.0]]"] ;
713 -> 715 ;
716 [label="squared_error = 0.0\nsamples = 1\nvalue = [[0.6]\n[0.0]]"] ;
715 -> 716 ;
717 [label="103_PV_1 <= 0.1\nsquared_error = 0.0\nsamples = 6\nvalue = [[0.3]\n[0.0]]"] ;
715 -> 717 ;
718 [label="N_107 <= 0.1\nsquared_error = 0.0\nsamples = 5\nvalue = [[0.3]\n[0.0]]"] ;
717 -> 718 ;
719 [label="squared_error = 0.0\nsamples = 1\nvalue = [[0.3]\n[0.0]]"] ;
718 -> 719 ;
720 [label="118_RTPV_5 <= 0.0\nsquared_error = 0.0\nsamples = 4\nvalue = [[0.3]\n[0.0]]"] ;
718 -> 720 ;
721 [label="N_107 <= 0.1\nsquared_error = 0.0\nsamples = 3\nvalue = [[0.3]\n[0.0]]"] ;
720 -> 721 ;
722 [label="squared_error = 0.0\nsamples = 1\nvalue = [[0.3]\n[0.0]]"] ;
721 -> 722 ;
723 [label="101_PV_1 <= 0.0\nsquared_error = 0.0\nsamples = 2\nvalue = [[0.3]\n[0.0]]"] ;
721 -> 723 ;
724 [label="squared_error = 0.0\nsamples = 1\nvalue = [[0.3]\n[0.0]]"] ;
723 -> 724 ;
725 [label="squared_error = 0.0\nsamples = 1\nvalue = [[0.3]\n[0.0]]"] ;
723 -> 725 ;
726 [label="squared_error = -0.0\nsamples = 1\nvalue = [[0.4]\n[0.0]]"] ;
720 -> 726 ;
727 [label="squared_error = 0.0\nsamples = 1\nvalue = [[0.2]\n[0.0]]"] ;
717 -> 727 ;
728 [label="N_113 <= 0.1\nsquared_error = 0.0\nsamples = 18\nvalue = [[0.3]\n[0.0]]"] ;
706 -> 728 ;
729 [label="squared_error = 0.0\nsamples = 3\nvalue = [[0.0]\n[0.0]]"] ;
728 -> 729 ;
730 [label="N_116 <= 0.0\nsquared_error = 0.0\nsamples = 15\nvalue = [[0.4]\n[0.0]]"] ;
728 -> 730 ;
731 [label="squared_error = 0.0\nsamples = 1\nvalue = [[0.8]\n[0.0]]"] ;
730 -> 731 ;
732 [label="N_106 <= 0.1\nsquared_error = 0.0\nsamples = 14\nvalue = [[0.4]\n[0.0]]"] ;
730 -> 732 ;
733 [label="N_104 <= 0.0\nsquared_error = 0.0\nsamples = 2\nvalue = [[0.6]\n[0.0]]"] ;
732 -> 733 ;
734 [label="squared_error = 0.0\nsamples = 1\nvalue = [[0.5]\n[0.0]]"] ;
733 -> 734 ;
735 [label="squared_error = 0.0\nsamples = 1\nvalue = [[0.7]\n[0.0]]"] ;
733 -> 735 ;
736 [label="N_108 <= 0.1\nsquared_error = 0.0\nsamples = 12\nvalue = [[0.3]\n[0.0]]"] ;
732 -> 736 ;
737 [label="squared_error = 0.0\nsamples = 2\nvalue = [[0.0]\n[0.0]]"] ;
736 -> 737 ;
738 [label="N_102 <= 0.1\nsquared_error = 0.0\nsamples = 10\nvalue = [[0.4]\n[0.0]]"] ;
736 -> 738 ;
739 [label="N_115 <= 0.3\nsquared_error = 0.0\nsamples = 9\nvalue = [[0.4]\n[0.0]]"] ;
738 -> 739 ;
740 [label="N_106 <= 0.1\nsquared_error = 0.0\nsamples = 8\nvalue = [[0.3]\n[0.0]]"] ;
739 -> 740 ;
741 [label="N_110 <= 0.1\nsquared_error = 0.0\nsamples = 6\nvalue = [[0.3]\n[0.0]]"] ;
740 -> 741 ;
742 [label="N_101 <= 0.1\nsquared_error = 0.0\nsamples = 2\nvalue = [[0.3]\n[0.0]]"] ;
741 -> 742 ;
743 [label="squared_error = 0.0\nsamples = 1\nvalue = [[0.3]\n[0.0]]"] ;
742 -> 743 ;
744 [label="squared_error = 0.0\nsamples = 1\nvalue = [[0.3]\n[0.0]]"] ;
742 -> 744 ;
745 [label="N_114 <= 0.1\nsquared_error = 0.0\nsamples = 4\nvalue = [[0.3]\n[0.0]]"] ;
741 -> 745 ;
746 [label="118_RTPV_3 <= 0.0\nsquared_error = 0.0\nsamples = 3\nvalue = [[0.3]\n[0.0]]"] ;
745 -> 746 ;
747 [label="N_102 <= 0.1\nsquared_error = 0.0\nsamples = 2\nvalue = [[0.3]\n[0.0]]"] ;
746 -> 747 ;
748 [label="squared_error = -0.0\nsamples = 1\nvalue = [[0.3]\n[0.0]]"] ;
747 -> 748 ;
749 [label="squared_error = 0.0\nsamples = 1\nvalue = [[0.3]\n[0.0]]"] ;
747 -> 749 ;
750 [label="squared_error = 0.0\nsamples = 1\nvalue = [[0.3]\n[0.0]]"] ;
746 -> 750 ;
751 [label="squared_error = -0.0\nsamples = 1\nvalue = [[0.3]\n[0.0]]"] ;
745 -> 751 ;
752 [label="N_107 <= 0.1\nsquared_error = 0.0\nsamples = 2\nvalue = [[0.4]\n[0.0]]"] ;
740 -> 752 ;
753 [label="squared_error = 0.0\nsamples = 1\nvalue = [[0.4]\n[0.0]]"] ;
752 -> 753 ;
754 [label="squared_error = 0.0\nsamples = 1\nvalue = [[0.4]\n[0.0]]"] ;
752 -> 754 ;
755 [label="squared_error = -0.0\nsamples = 1\nvalue = [[0.5]\n[0.0]]"] ;
739 -> 755 ;
756 [label="squared_error = -0.0\nsamples = 1\nvalue = [[0.4]\n[0.2]]"] ;
738 -> 756 ;
757 [label="102_PV_2 <= 0.0\nsquared_error = 0.0\nsamples = 19\nvalue = [[0.1]\n[0.0]]"] ;
705 -> 757 ;
758 [label="N_101 <= 0.1\nsquared_error = 0.0\nsamples = 5\nvalue = [[0.3]\n[0.0]]"] ;
757 -> 758 ;
759 [label="N_107 <= 0.1\nsquared_error = 0.0\nsamples = 3\nvalue = [[0.4]\n[0.0]]"] ;
758 -> 759 ;
760 [label="102_PV_2 <= 0.0\nsquared_error = 0.0\nsamples = 2\nvalue = [[0.4]\n[0.0]]"] ;
759 -> 760 ;
761 [label="squared_error = 0.0\nsamples = 1\nvalue = [[0.4]\n[0.0]]"] ;
760 -> 761 ;
762 [label="squared_error = 0.0\nsamples = 1\nvalue = [[0.4]\n[0.0]]"] ;
760 -> 762 ;
763 [label="squared_error = 0.0\nsamples = 1\nvalue = [[0.5]\n[0.0]]"] ;
759 -> 763 ;
764 [label="squared_error = 0.0\nsamples = 2\nvalue = [[0.0]\n[0.0]]"] ;
758 -> 764 ;
765 [label="122_WIND_1 <= 0.6\nsquared_error = 0.0\nsamples = 14\nvalue = [[0.0]\n[0.0]]"] ;
757 -> 765 ;
766 [label="squared_error = 0.0\nsamples = 1\nvalue = [[0.1]\n[0.0]]"] ;
765 -> 766 ;
767 [label="squared_error = 0.0\nsamples = 13\nvalue = [[0.0]\n[0.0]]"] ;
765 -> 767 ;
768 [label="N_119 <= 0.1\nsquared_error = 0.0\nsamples = 3\nvalue = [[0.5]\n[0.0]]"] ;
422 -> 768 ;
769 [label="squared_error = 0.0\nsamples = 1\nvalue = [[0.5]\n[0.0]]"] ;
768 -> 769 ;
770 [label="101_PV_4 <= 0.0\nsquared_error = 0.0\nsamples = 2\nvalue = [[0.6]\n[0.0]]"] ;
768 -> 770 ;
771 [label="squared_error = 0.0\nsamples = 1\nvalue = [[0.6]\n[0.0]]"] ;
770 -> 771 ;
772 [label="squared_error = -0.0\nsamples = 1\nvalue = [[0.6]\n[0.0]]"] ;
770 -> 772 ;
773 [label="N_116 <= 0.1\nsquared_error = 0.0\nsamples = 232\nvalue = [[0.1]\n[0.0]]"] ;
341 -> 773 ;
774 [label="N_108 <= 0.1\nsquared_error = 0.0\nsamples = 228\nvalue = [[0.1]\n[0.0]]"] ;
773 -> 774 ;
775 [label="118_RTPV_6 <= 0.0\nsquared_error = 0.0\nsamples = 227\nvalue = [[0.0]\n[0.0]]"] ;
774 -> 775 ;
776 [label="N_119 <= 0.2\nsquared_error = 0.0\nsamples = 138\nvalue = [[0.1]\n[0.0]]"] ;
775 -> 776 ;
777 [label="N_119 <= 0.1\nsquared_error = 0.0\nsamples = 137\nvalue = [[0.1]\n[0.0]]"] ;
776 -> 777 ;
778 [label="N_107 <= 0.1\nsquared_error = 0.0\nsamples = 21\nvalue = [[0.1]\n[0.0]]"] ;
777 -> 778 ;
779 [label="N_110 <= 0.1\nsquared_error = 0.0\nsamples = 19\nvalue = [[0.1]\n[0.0]]"] ;
778 -> 779 ;
780 [label="122_WIND_1 <= 0.7\nsquared_error = 0.0\nsamples = 13\nvalue = [[0.2]\n[0.0]]"] ;
779 -> 780 ;
781 [label="N_107 <= 0.1\nsquared_error = 0.0\nsamples = 10\nvalue = [[0.1]\n[0.0]]"] ;
780 -> 781 ;
782 [label="N_107 <= 0.1\nsquared_error = 0.0\nsamples = 8\nvalue = [[0.1]\n[0.0]]"] ;
781 -> 782 ;
783 [label="N_105 <= 0.0\nsquared_error = 0.0\nsamples = 3\nvalue = [[0.1]\n[0.0]]"] ;
782 -> 783 ;
784 [label="squared_error = 0.0\nsamples = 1\nvalue = [[0.1]\n[0.0]]"] ;
783 -> 784 ;
785 [label="118_RTPV_2 <= 0.0\nsquared_error = 0.0\nsamples = 2\nvalue = [[0.2]\n[0.0]]"] ;
783 -> 785 ;
786 [label="squared_error = 0.0\nsamples = 1\nvalue = [[0.2]\n[0.0]]"] ;
785 -> 786 ;
787 [label="squared_error = 0.0\nsamples = 1\nvalue = [[0.1]\n[0.0]]"] ;
785 -> 787 ;
788 [label="N_118 <= 0.2\nsquared_error = 0.0\nsamples = 5\nvalue = [[0.0]\n[0.0]]"] ;
782 -> 788 ;
789 [label="squared_error = 0.0\nsamples = 4\nvalue = [[0.0]\n[0.0]]"] ;
788 -> 789 ;
790 [label="squared_error = 0.0\nsamples = 1\nvalue = [[0.0]\n[0.0]]"] ;
788 -> 790 ;
791 [label="118_RTPV_1 <= 0.0\nsquared_error = 0.0\nsamples = 2\nvalue = [[0.4]\n[0.0]]"] ;
781 -> 791 ;
792 [label="squared_error = 0.0\nsamples = 1\nvalue = [[0.5]\n[0.0]]"] ;
791 -> 792 ;
793 [label="squared_error = -0.0\nsamples = 1\nvalue = [[0.3]\n[0.0]]"] ;
791 -> 793 ;
794 [label="118_RTPV_7 <= 0.0\nsquared_error = 0.0\nsamples = 3\nvalue = [[0.3]\n[0.0]]"] ;
780 -> 794 ;
795 [label="118_RTPV_2 <= 0.0\nsquared_error = 0.0\nsamples = 2\nvalue = [[0.3]\n[0.0]]"] ;
794 -> 795 ;
796 [label="squared_error = 0.0\nsamples = 1\nvalue = [[0.3]\n[0.0]]"] ;
795 -> 796 ;
797 [label="squared_error = 0.0\nsamples = 1\nvalue = [[0.3]\n[0.0]]"] ;
795 -> 797 ;
798 [label="squared_error = 0.0\nsamples = 1\nvalue = [[0.4]\n[0.0]]"] ;
794 -> 798 ;
799 [label="squared_error = 0.0\nsamples = 6\nvalue = [[0.0]\n[0.0]]"] ;
779 -> 799 ;
800 [label="N_113 <= 0.1\nsquared_error = 0.0\nsamples = 2\nvalue = [[0.4]\n[0.0]]"] ;
778 -> 800 ;
801 [label="squared_error = 0.0\nsamples = 1\nvalue = [[0.3]\n[0.0]]"] ;
800 -> 801 ;
802 [label="squared_error = -0.0\nsamples = 1\nvalue = [[0.5]\n[0.0]]"] ;
800 -> 802 ;
803 [label="118_RTPV_8 <= 0.0\nsquared_error = 0.0\nsamples = 116\nvalue = [[0.1]\n[0.0]]"] ;
777 -> 803 ;
804 [label="101_PV_4 <= 0.0\nsquared_error = 0.0\nsamples = 111\nvalue = [[0.0]\n[0.0]]"] ;
803 -> 804 ;
805 [label="N_103 <= 0.1\nsquared_error = 0.0\nsamples = 46\nvalue = [[0.0]\n[0.0]]"] ;
804 -> 805 ;
806 [label="squared_error = 0.0\nsamples = 1\nvalue = [[0.1]\n[0.0]]"] ;
805 -> 806 ;
807 [label="N_120 <= 0.1\nsquared_error = 0.0\nsamples = 45\nvalue = [[0.0]\n[0.0]]"] ;
805 -> 807 ;
808 [label="N_104 <= 0.0\nsquared_error = 0.0\nsamples = 11\nvalue = [[0.0]\n[0.0]]"] ;
807 -> 808 ;
809 [label="N_119 <= 0.1\nsquared_error = 0.0\nsamples = 8\nvalue = [[0.0]\n[0.0]]"] ;
808 -> 809 ;
810 [label="squared_error = 0.0\nsamples = 1\nvalue = [[0.1]\n[0.0]]"] ;
809 -> 810 ;
811 [label="122_WIND_1 <= 0.6\nsquared_error = 0.0\nsamples = 7\nvalue = [[0.0]\n[0.0]]"] ;
809 -> 811 ;
812 [label="squared_error = 0.0\nsamples = 6\nvalue = [[0.0]\n[0.0]]"] ;
811 -> 812 ;
813 [label="squared_error = 0.0\nsamples = 1\nvalue = [[0.0]\n[0.0]]"] ;
811 -> 813 ;
814 [label="N_110 <= 0.1\nsquared_error = 0.0\nsamples = 3\nvalue = [[0.1]\n[0.0]]"] ;
808 -> 814 ;
815 [label="squared_error = 0.0\nsamples = 1\nvalue = [[0.1]\n[0.0]]"] ;
814 -> 815 ;
816 [label="113_PV_1 <= 0.0\nsquared_error = 0.0\nsamples = 2\nvalue = [[0.1]\n[0.0]]"] ;
814 -> 816 ;
817 [label="squared_error = 0.0\nsamples = 1\nvalue = [[0.1]\n[0.0]]"] ;
816 -> 817 ;
818 [label="squared_error = 0.0\nsamples = 1\nvalue = [[0.1]\n[0.0]]"] ;
816 -> 818 ;
819 [label="N_110 <= 0.1\nsquared_error = 0.0\nsamples = 34\nvalue = [[0.0]\n[0.0]]"] ;
807 -> 819 ;
820 [label="squared_error = 0.0\nsamples = 1\nvalue = [[0.0]\n[0.0]]"] ;
819 -> 820 ;
821 [label="squared_error = 0.0\nsamples = 33\nvalue = [[0.0]\n[0.0]]"] ;
819 -> 821 ;
822 [label="N_101 <= 0.1\nsquared_error = 0.0\nsamples = 65\nvalue = [[0.1]\n[0.0]]"] ;
804 -> 822 ;
823 [label="102_PV_2 <= 0.0\nsquared_error = 0.0\nsamples = 49\nvalue = [[0.0]\n[0.0]]"] ;
822 -> 823 ;
824 [label="squared_error = 0.0\nsamples = 1\nvalue = [[0.5]\n[0.0]]"] ;
823 -> 824 ;
825 [label="101_PV_1 <= 0.0\nsquared_error = 0.0\nsamples = 48\nvalue = [[0.0]\n[0.0]]"] ;
823 -> 825 ;
826 [label="N_114 <= 0.1\nsquared_error = 0.0\nsamples = 6\nvalue = [[0.1]\n[0.0]]"] ;
825 -> 826 ;
827 [label="102_PV_1 <= 0.0\nsquared_error = 0.0\nsamples = 2\nvalue = [[0.4]\n[0.0]]"] ;
826 -> 827 ;
828 [label="squared_error = -0.0\nsamples = 1\nvalue = [[0.4]\n[0.0]]"] ;
827 -> 828 ;
829 [label="squared_error = -0.0\nsamples = 1\nvalue = [[0.5]\n[0.0]]"] ;
827 -> 829 ;
830 [label="118_RTPV_1 <= 0.0\nsquared_error = 0.0\nsamples = 4\nvalue = [[0.1]\n[0.0]]"] ;
826 -> 830 ;
831 [label="squared_error = 0.0\nsamples = 2\nvalue = [[0.0]\n[0.0]]"] ;
830 -> 831 ;
832 [label="118_RTPV_2 <= 0.0\nsquared_error = 0.0\nsamples = 2\nvalue = [[0.1]\n[0.0]]"] ;
830 -> 832 ;
833 [label="squared_error = 0.0\nsamples = 1\nvalue = [[0.1]\n[0.0]]"] ;
832 -> 833 ;
834 [label="squared_error = -0.0\nsamples = 1\nvalue = [[0.1]\n[0.0]]"] ;
832 -> 834 ;
835 [label="N_115 <= 0.3\nsquared_error = 0.0\nsamples = 42\nvalue = [[0.0]\n[0.0]]"] ;
825 -> 835 ;
836 [label="N_119 <= 0.1\nsquared_error = 0.0\nsamples = 41\nvalue = [[0.0]\n[0.0]]"] ;
835 -> 836 ;
837 [label="N_109 <= 0.1\nsquared_error = 0.0\nsamples = 34\nvalue = [[0.0]\n[0.0]]"] ;
836 -> 837 ;
838 [label="N_101 <= 0.1\nsquared_error = 0.0\nsamples = 32\nvalue = [[0.0]\n[0.0]]"] ;
837 -> 838 ;
839 [label="squared_error = 0.0\nsamples = 28\nvalue = [[0.0]\n[0.0]]"] ;
838 -> 839 ;
840 [label="N_118 <= 0.2\nsquared_error = 0.0\nsamples = 4\nvalue = [[0.0]\n[0.0]]"] ;
838 -> 840 ;
841 [label="squared_error = 0.0\nsamples = 1\nvalue = [[0.1]\n[0.0]]"] ;
840 -> 841 ;
842 [label="squared_error = 0.0\nsamples = 3\nvalue = [[0.0]\n[0.0]]"] ;
840 -> 842 ;
843 [label="118_RTPV_2 <= 0.0\nsquared_error = 0.0\nsamples = 2\nvalue = [[0.1]\n[0.0]]"] ;
837 -> 843 ;
844 [label="squared_error = 0.0\nsamples = 1\nvalue = [[0.1]\n[0.0]]"] ;
843 -> 844 ;
845 [label="squared_error = 0.0\nsamples = 1\nvalue = [[0.0]\n[0.0]]"] ;
843 -> 845 ;
846 [label="122_WIND_1 <= 0.8\nsquared_error = 0.0\nsamples = 7\nvalue = [[0.1]\n[0.0]]"] ;
836 -> 846 ;
847 [label="N_107 <= 0.1\nsquared_error = 0.0\nsamples = 6\nvalue = [[0.0]\n[0.0]]"] ;
846 -> 847 ;
848 [label="squared_error = 0.0\nsamples = 1\nvalue = [[0.1]\n[0.0]]"] ;
847 -> 848 ;
849 [label="squared_error = 0.0\nsamples = 5\nvalue = [[0.0]\n[0.0]]"] ;
847 -> 849 ;
850 [label="squared_error = 0.0\nsamples = 1\nvalue = [[0.4]\n[0.0]]"] ;
846 -> 850 ;
851 [label="squared_error = 0.0\nsamples = 1\nvalue = [[0.3]\n[0.0]]"] ;
835 -> 851 ;
852 [label="101_PV_4 <= 0.0\nsquared_error = 0.0\nsamples = 16\nvalue = [[0.2]\n[0.0]]"] ;
822 -> 852 ;
853 [label="N_108 <= 0.1\nsquared_error = 0.0\nsamples = 13\nvalue = [[0.1]\n[0.0]]"] ;
852 -> 853 ;
854 [label="N_101 <= 0.1\nsquared_error = 0.0\nsamples = 4\nvalue = [[0.3]\n[0.0]]"] ;
853 -> 854 ;
855 [label="squared_error = 0.0\nsamples = 1\nvalue = [[0.0]\n[0.0]]"] ;
854 -> 855 ;
856 [label="119_PV_1 <= 0.1\nsquared_error = 0.0\nsamples = 3\nvalue = [[0.3]\n[0.0]]"] ;
854 -> 856 ;
857 [label="118_RTPV_7 <= 0.0\nsquared_error = 0.0\nsamples = 2\nvalue = [[0.4]\n[0.0]]"] ;
856 -> 857 ;
858 [label="squared_error = 0.0\nsamples = 1\nvalue = [[0.4]\n[0.0]]"] ;
857 -> 858 ;
859 [label="squared_error = -0.0\nsamples = 1\nvalue = [[0.5]\n[0.0]]"] ;
857 -> 859 ;
860 [label="squared_error = -0.0\nsamples = 1\nvalue = [[0.2]\n[0.0]]"] ;
856 -> 860 ;
861 [label="122_WIND_1 <= 0.9\nsquared_error = 0.0\nsamples = 9\nvalue = [[0.1]\n[0.0]]"] ;
853 -> 861 ;
862 [label="squared_error = -0.0\nsamples = 6\nvalue = [[0.0]\n[0.0]]"] ;
861 -> 862 ;
863 [label="N_104 <= 0.0\nsquared_error = 0.0\nsamples = 3\nvalue = [[0.2]\n[0.0]]"] ;
861 -> 863 ;
864 [label="squared_error = 0.0\nsamples = 1\nvalue = [[0.0]\n[0.0]]"] ;
863 -> 864 ;
865 [label="N_104 <= 0.1\nsquared_error = 0.0\nsamples = 2\nvalue = [[0.2]\n[0.0]]"] ;
863 -> 865 ;
866 [label="squared_error = 0.0\nsamples = 1\nvalue = [[0.2]\n[0.0]]"] ;
865 -> 866 ;
867 [label="squared_error = -0.0\nsamples = 1\nvalue = [[0.2]\n[0.0]]"] ;
865 -> 867 ;
868 [label="101_PV_3 <= 0.0\nsquared_error = 0.0\nsamples = 3\nvalue = [[0.5]\n[0.0]]"] ;
852 -> 868 ;
869 [label="N_102 <= 0.1\nsquared_error = 0.0\nsamples = 2\nvalue = [[0.4]\n[0.0]]"] ;
868 -> 869 ;
870 [label="squared_error = 0.0\nsamples = 1\nvalue = [[0.5]\n[0.0]]"] ;
869 -> 870 ;
871 [label="squared_error = 0.0\nsamples = 1\nvalue = [[0.4]\n[0.0]]"] ;
869 -> 871 ;
872 [label="squared_error = 0.0\nsamples = 1\nvalue = [[0.7]\n[0.0]]"] ;
868 -> 872 ;
873 [label="113_PV_1 <= 0.1\nsquared_error = 0.0\nsamples = 5\nvalue = [[0.2]\n[0.0]]"] ;
803 -> 873 ;
874 [label="122_WIND_1 <= 0.6\nsquared_error = 0.0\nsamples = 3\nvalue = [[0.4]\n[0.0]]"] ;
873 -> 874 ;
875 [label="squared_error = 0.0\nsamples = 1\nvalue = [[0.5]\n[0.0]]"] ;
874 -> 875 ;
876 [label="N_109 <= 0.1\nsquared_error = 0.0\nsamples = 2\nvalue = [[0.3]\n[0.0]]"] ;
874 -> 876 ;
877 [label="squared_error = 0.0\nsamples = 1\nvalue = [[0.3]\n[0.0]]"] ;
876 -> 877 ;
878 [label="squared_error = -0.0\nsamples = 1\nvalue = [[0.3]\n[0.0]]"] ;
876 -> 878 ;
879 [label="118_RTPV_9 <= 0.0\nsquared_error = 0.0\nsamples = 2\nvalue = [[0.1]\n[0.0]]"] ;
873 -> 879 ;
880 [label="squared_error = 0.0\nsamples = 1\nvalue = [[0.2]\n[0.0]]"] ;
879 -> 880 ;
881 [label="squared_error = 0.0\nsamples = 1\nvalue = [[0.0]\n[0.0]]"] ;
879 -> 881 ;
882 [label="squared_error = 0.0\nsamples = 1\nvalue = [[0.4]\n[0.0]]"] ;
776 -> 882 ;
883 [label="101_PV_1 <= 0.0\nsquared_error = 0.0\nsamples = 89\nvalue = [[0.0]\n[0.0]]"] ;
775 -> 883 ;
884 [label="122_WIND_1 <= 0.8\nsquared_error = 0.0\nsamples = 9\nvalue = [[0.1]\n[0.0]]"] ;
883 -> 884 ;
885 [label="N_106 <= 0.1\nsquared_error = 0.0\nsamples = 7\nvalue = [[0.0]\n[0.0]]"] ;
884 -> 885 ;
886 [label="squared_error = 0.0\nsamples = 1\nvalue = [[0.1]\n[0.0]]"] ;
885 -> 886 ;
887 [label="squared_error = 0.0\nsamples = 6\nvalue = [[0.0]\n[0.0]]"] ;
885 -> 887 ;
888 [label="N_115 <= 0.2\nsquared_error = 0.0\nsamples = 2\nvalue = [[0.3]\n[0.0]]"] ;
884 -> 888 ;
889 [label="squared_error = 0.0\nsamples = 1\nvalue = [[0.3]\n[0.0]]"] ;
888 -> 889 ;
890 [label="squared_error = -0.0\nsamples = 1\nvalue = [[0.4]\n[0.0]]"] ;
888 -> 890 ;
891 [label="N_108 <= 0.1\nsquared_error = 0.0\nsamples = 80\nvalue = [[0.0]\n[0.0]]"] ;
883 -> 891 ;
892 [label="N_101 <= 0.1\nsquared_error = 0.0\nsamples = 77\nvalue = [[0.0]\n[0.0]]"] ;
891 -> 892 ;
893 [label="113_PV_1 <= 0.2\nsquared_error = 0.0\nsamples = 75\nvalue = [[0.0]\n[0.0]]"] ;
892 -> 893 ;
894 [label="113_PV_1 <= 0.0\nsquared_error = 0.0\nsamples = 66\nvalue = [[0.0]\n[0.0]]"] ;
893 -> 894 ;
895 [label="N_110 <= 0.1\nsquared_error = 0.0\nsamples = 2\nvalue = [[0.0]\n[0.0]]"] ;
894 -> 895 ;
896 [label="squared_error = 0.0\nsamples = 1\nvalue = [[0.1]\n[0.0]]"] ;
895 -> 896 ;
897 [label="squared_error = 0.0\nsamples = 1\nvalue = [[0.0]\n[0.0]]"] ;
895 -> 897 ;
898 [label="N_119 <= 0.2\nsquared_error = 0.0\nsamples = 64\nvalue = [[0.0]\n[0.0]]"] ;
894 -> 898 ;
899 [label="N_108 <= 0.1\nsquared_error = 0.0\nsamples = 62\nvalue = [[0.0]\n[0.0]]"] ;
898 -> 899 ;
900 [label="122_WIND_1 <= 1.1\nsquared_error = 0.0\nsamples = 59\nvalue = [[0.0]\n[0.0]]"] ;
899 -> 900 ;
901 [label="squared_error = 0.0\nsamples = 57\nvalue = [[0.0]\n[0.0]]"] ;
900 -> 901 ;
902 [label="118_RTPV_9 <= 0.0\nsquared_error = 0.0\nsamples = 2\nvalue = [[0.0]\n[0.0]]"] ;
900 -> 902 ;
903 [label="squared_error = 0.0\nsamples = 1\nvalue = [[0.0]\n[0.0]]"] ;
902 -> 903 ;
904 [label="squared_error = 0.0\nsamples = 1\nvalue = [[0.0]\n[0.0]]"] ;
902 -> 904 ;
905 [label="N_104 <= 0.0\nsquared_error = 0.0\nsamples = 3\nvalue = [[0.0]\n[0.0]]"] ;
899 -> 905 ;
906 [label="squared_error = 0.0\nsamples = 1\nvalue = [[0.0]\n[0.0]]"] ;
905 -> 906 ;
907 [label="squared_error = 0.0\nsamples = 2\nvalue = [[0.0]\n[0.0]]"] ;
905 -> 907 ;
908 [label="118_RTPV_9 <= 0.0\nsquared_error = 0.0\nsamples = 2\nvalue = [[0.0]\n[0.0]]"] ;
898 -> 908 ;
909 [label="squared_error = 0.0\nsamples = 1\nvalue = [[0.0]\n[0.0]]"] ;
908 -> 909 ;
910 [label="squared_error = 0.0\nsamples = 1\nvalue = [[0.0]\n[0.0]]"] ;
908 -> 910 ;
911 [label="101_PV_3 <= 0.0\nsquared_error = 0.0\nsamples = 9\nvalue = [[0.0]\n[0.0]]"] ;
893 -> 911 ;
912 [label="squared_error = 0.0\nsamples = 1\nvalue = [[0.3]\n[0.0]]"] ;
911 -> 912 ;
913 [label="squared_error = 0.0\nsamples = 8\nvalue = [[0.0]\n[0.0]]"] ;
911 -> 913 ;
914 [label="N_101 <= 0.1\nsquared_error = 0.0\nsamples = 2\nvalue = [[0.1]\n[0.0]]"] ;
892 -> 914 ;
915 [label="squared_error = 0.0\nsamples = 1\nvalue = [[0.3]\n[0.0]]"] ;
914 -> 915 ;
916 [label="squared_error = 0.0\nsamples = 1\nvalue = [[0.0]\n[0.0]]"] ;
914 -> 916 ;
917 [label="118_RTPV_5 <= 0.0\nsquared_error = 0.0\nsamples = 3\nvalue = [[0.1]\n[0.0]]"] ;
891 -> 917 ;
918 [label="N_102 <= 0.1\nsquared_error = 0.0\nsamples = 2\nvalue = [[0.2]\n[0.0]]"] ;
917 -> 918 ;
919 [label="squared_error = 0.0\nsamples = 1\nvalue = [[0.2]\n[0.0]]"] ;
918 -> 919 ;
920 [label="squared_error = 0.0\nsamples = 1\nvalue = [[0.2]\n[0.0]]"] ;
918 -> 920 ;
921 [label="squared_error = 0.0\nsamples = 1\nvalue = [[0.1]\n[0.0]]"] ;
917 -> 921 ;
922 [label="squared_error = 0.0\nsamples = 1\nvalue = [[0.4]\n[0.0]]"] ;
774 -> 922 ;
923 [label="N_104 <= 0.1\nsquared_error = 0.0\nsamples = 4\nvalue = [[0.3]\n[0.0]]"] ;
773 -> 923 ;
924 [label="101_PV_3 <= 0.0\nsquared_error = 0.0\nsamples = 3\nvalue = [[0.4]\n[0.0]]"] ;
923 -> 924 ;
925 [label="squared_error = 0.0\nsamples = 1\nvalue = [[0.4]\n[0.0]]"] ;
924 -> 925 ;
926 [label="N_107 <= 0.1\nsquared_error = 0.0\nsamples = 2\nvalue = [[0.3]\n[0.0]]"] ;
924 -> 926 ;
927 [label="squared_error = 0.0\nsamples = 1\nvalue = [[0.3]\n[0.0]]"] ;
926 -> 927 ;
928 [label="squared_error = 0.0\nsamples = 1\nvalue = [[0.3]\n[0.1]]"] ;
926 -> 928 ;
929 [label="squared_error = 0.0\nsamples = 1\nvalue = [[0.0]\n[0.0]]"] ;
923 -> 929 ;
930 [label="113_PV_1 <= 0.1\nsquared_error = 0.0\nsamples = 239\nvalue = [[0.2]\n[0.0]]"] ;
340 -> 930 ;
931 [label="N_113 <= 0.2\nsquared_error = 0.0\nsamples = 204\nvalue = [[0.2]\n[0.0]]"] ;
930 -> 931 ;
932 [label="N_108 <= 0.1\nsquared_error = 0.0\nsamples = 175\nvalue = [[0.2]\n[0.0]]"] ;
931 -> 932 ;
933 [label="N_105 <= 0.0\nsquared_error = 0.0\nsamples = 163\nvalue = [[0.2]\n[0.0]]"] ;
932 -> 933 ;
934 [label="122_WIND_1 <= 1.3\nsquared_error = 0.0\nsamples = 34\nvalue = [[0.3]\n[0.0]]"] ;
933 -> 934 ;
935 [label="N_116 <= 0.1\nsquared_error = 0.0\nsamples = 10\nvalue = [[0.1]\n[0.0]]"] ;
934 -> 935 ;
936 [label="122_WIND_1 <= 1.2\nsquared_error = 0.0\nsamples = 6\nvalue = [[0.0]\n[0.0]]"] ;
935 -> 936 ;
937 [label="squared_error = 0.0\nsamples = 1\nvalue = [[0.3]\n[0.0]]"] ;
936 -> 937 ;
938 [label="squared_error = 0.0\nsamples = 5\nvalue = [[0.0]\n[0.0]]"] ;
936 -> 938 ;
939 [label="101_PV_4 <= 0.0\nsquared_error = 0.0\nsamples = 4\nvalue = [[0.3]\n[0.0]]"] ;
935 -> 939 ;
940 [label="squared_error = 0.0\nsamples = 1\nvalue = [[0.0]\n[0.0]]"] ;
939 -> 940 ;
941 [label="N_116 <= 0.1\nsquared_error = 0.0\nsamples = 3\nvalue = [[0.4]\n[0.0]]"] ;
939 -> 941 ;
942 [label="squared_error = 0.0\nsamples = 1\nvalue = [[0.5]\n[0.0]]"] ;
941 -> 942 ;
943 [label="122_WIND_1 <= 1.2\nsquared_error = 0.0\nsamples = 2\nvalue = [[0.4]\n[0.0]]"] ;
941 -> 943 ;
944 [label="squared_error = 0.0\nsamples = 1\nvalue = [[0.3]\n[0.0]]"] ;
943 -> 944 ;
945 [label="squared_error = -0.0\nsamples = 1\nvalue = [[0.4]\n[0.0]]"] ;
943 -> 945 ;
946 [label="N_105 <= 0.0\nsquared_error = 0.0\nsamples = 24\nvalue = [[0.3]\n[0.0]]"] ;
934 -> 946 ;
947 [label="squared_error = 0.0\nsamples = 2\nvalue = [[0.0]\n[0.0]]"] ;
946 -> 947 ;
948 [label="N_114 <= 0.1\nsquared_error = 0.0\nsamples = 22\nvalue = [[0.4]\n[0.0]]"] ;
946 -> 948 ;
949 [label="102_PV_1 <= 0.0\nsquared_error = 0.0\nsamples = 12\nvalue = [[0.4]\n[0.0]]"] ;
948 -> 949 ;
950 [label="N_108 <= 0.1\nsquared_error = 0.0\nsamples = 7\nvalue = [[0.4]\n[0.0]]"] ;
949 -> 950 ;
951 [label="118_RTPV_9 <= 0.0\nsquared_error = 0.0\nsamples = 2\nvalue = [[0.4]\n[0.0]]"] ;
950 -> 951 ;
952 [label="squared_error = 0.0\nsamples = 1\nvalue = [[0.5]\n[0.0]]"] ;
951 -> 952 ;
953 [label="squared_error = -0.0\nsamples = 1\nvalue = [[0.4]\n[0.0]]"] ;
951 -> 953 ;
954 [label="N_118 <= 0.2\nsquared_error = 0.0\nsamples = 5\nvalue = [[0.3]\n[0.0]]"] ;
950 -> 954 ;
955 [label="119_PV_1 <= 0.1\nsquared_error = 0.0\nsamples = 2\nvalue = [[0.4]\n[0.0]]"] ;
954 -> 955 ;
956 [label="squared_error = 0.0\nsamples = 1\nvalue = [[0.4]\n[0.0]]"] ;
955 -> 956 ;
957 [label="squared_error = 0.0\nsamples = 1\nvalue = [[0.4]\n[0.0]]"] ;
955 -> 957 ;
958 [label="N_119 <= 0.1\nsquared_error = 0.0\nsamples = 3\nvalue = [[0.3]\n[0.0]]"] ;
954 -> 958 ;
959 [label="squared_error = 0.0\nsamples = 1\nvalue = [[0.3]\n[0.0]]"] ;
958 -> 959 ;
960 [label="118_RTPV_10 <= 0.0\nsquared_error = 0.0\nsamples = 2\nvalue = [[0.3]\n[0.0]]"] ;
958 -> 960 ;
961 [label="squared_error = 0.0\nsamples = 1\nvalue = [[0.3]\n[0.0]]"] ;
960 -> 961 ;
962 [label="squared_error = -0.0\nsamples = 1\nvalue = [[0.3]\n[0.0]]"] ;
960 -> 962 ;
963 [label="119_PV_1 <= 0.1\nsquared_error = 0.0\nsamples = 5\nvalue = [[0.4]\n[0.0]]"] ;
949 -> 963 ;
964 [label="N_102 <= 0.1\nsquared_error = 0.0\nsamples = 3\nvalue = [[0.5]\n[0.0]]"] ;
963 -> 964 ;
965 [label="N_113 <= 0.1\nsquared_error = 0.0\nsamples = 2\nvalue = [[0.5]\n[0.0]]"] ;
964 -> 965 ;
966 [label="squared_error = 0.0\nsamples = 1\nvalue = [[0.5]\n[0.0]]"] ;
965 -> 966 ;
967 [label="squared_error = -0.0\nsamples = 1\nvalue = [[0.5]\n[0.0]]"] ;
965 -> 967 ;
968 [label="squared_error = 0.0\nsamples = 1\nvalue = [[0.5]\n[0.0]]"] ;
964 -> 968 ;
969 [label="N_101 <= 0.1\nsquared_error = 0.0\nsamples = 2\nvalue = [[0.4]\n[0.0]]"] ;
963 -> 969 ;
970 [label="squared_error = 0.0\nsamples = 1\nvalue = [[0.4]\n[0.0]]"] ;
969 -> 970 ;
971 [label="squared_error = -0.0\nsamples = 1\nvalue = [[0.4]\n[0.0]]"] ;
969 -> 971 ;
972 [label="103_PV_1 <= 0.1\nsquared_error = 0.0\nsamples = 10\nvalue = [[0.3]\n[0.0]]"] ;
948 -> 972 ;
973 [label="104_PV_1 <= 0.0\nsquared_error = 0.0\nsamples = 9\nvalue = [[0.3]\n[0.0]]"] ;
972 -> 973 ;
974 [label="N_120 <= 0.1\nsquared_error = 0.0\nsamples = 8\nvalue = [[0.3]\n[0.0]]"] ;
973 -> 974 ;
975 [label="N_109 <= 0.1\nsquared_error = 0.0\nsamples = 7\nvalue = [[0.3]\n[0.0]]"] ;
974 -> 975 ;
976 [label="N_106 <= 0.1\nsquared_error = 0.0\nsamples = 6\nvalue = [[0.3]\n[0.0]]"] ;
975 -> 976 ;
977 [label="N_114 <= 0.1\nsquared_error = 0.0\nsamples = 2\nvalue = [[0.3]\n[0.0]]"] ;
976 -> 977 ;
978 [label="squared_error = 0.0\nsamples = 1\nvalue = [[0.3]\n[0.0]]"] ;
977 -> 978 ;
979 [label="squared_error = 0.0\nsamples = 1\nvalue = [[0.3]\n[0.0]]"] ;
977 -> 979 ;
980 [label="118_RTPV_5 <= 0.0\nsquared_error = 0.0\nsamples = 4\nvalue = [[0.3]\n[0.0]]"] ;
976 -> 980 ;
981 [label="squared_error = 0.0\nsamples = 1\nvalue = [[0.3]\n[0.0]]"] ;
980 -> 981 ;
982 [label="N_105 <= 0.0\nsquared_error = 0.0\nsamples = 3\nvalue = [[0.3]\n[0.0]]"] ;
980 -> 982 ;
983 [label="N_114 <= 0.1\nsquared_error = 0.0\nsamples = 2\nvalue = [[0.3]\n[0.0]]"] ;
982 -> 983 ;
984 [label="squared_error = 0.0\nsamples = 1\nvalue = [[0.3]\n[0.0]]"] ;
983 -> 984 ;
985 [label="squared_error = -0.0\nsamples = 1\nvalue = [[0.3]\n[0.0]]"] ;
983 -> 985 ;
986 [label="squared_error = -0.0\nsamples = 1\nvalue = [[0.3]\n[0.0]]"] ;
982 -> 986 ;
987 [label="squared_error = 0.0\nsamples = 1\nvalue = [[0.3]\n[0.0]]"] ;
975 -> 987 ;
988 [label="squared_error = -0.0\nsamples = 1\nvalue = [[0.3]\n[0.0]]"] ;
974 -> 988 ;
989 [label="squared_error = 0.0\nsamples = 1\nvalue = [[0.4]\n[0.0]]"] ;
973 -> 989 ;
990 [label="squared_error = 0.0\nsamples = 1\nvalue = [[0.0]\n[0.0]]"] ;
972 -> 990 ;
991 [label="N_105 <= 0.1\nsquared_error = 0.0\nsamples = 129\nvalue = [[0.2]\n[0.0]]"] ;
933 -> 991 ;
992 [label="N_101 <= 0.1\nsquared_error = 0.0\nsamples = 99\nvalue = [[0.1]\n[0.0]]"] ;
991 -> 992 ;
993 [label="N_104 <= 0.0\nsquared_error = 0.0\nsamples = 98\nvalue = [[0.1]\n[0.0]]"] ;
992 -> 993 ;
994 [label="104_PV_1 <= 0.0\nsquared_error = 0.0\nsamples = 41\nvalue = [[0.2]\n[0.0]]"] ;
993 -> 994 ;
995 [label="N_113 <= 0.1\nsquared_error = 0.0\nsamples = 10\nvalue = [[0.0]\n[0.0]]"] ;
994 -> 995 ;
996 [label="squared_error = 0.0\nsamples = 8\nvalue = [[0.0]\n[0.0]]"] ;
995 -> 996 ;
997 [label="118_RTPV_10 <= 0.0\nsquared_error = 0.0\nsamples = 2\nvalue = [[0.1]\n[0.0]]"] ;
995 -> 997 ;
998 [label="squared_error = 0.0\nsamples = 1\nvalue = [[0.2]\n[0.0]]"] ;
997 -> 998 ;
999 [label="squared_error = 0.0\nsamples = 1\nvalue = [[0.0]\n[0.0]]"] ;
997 -> 999 ;
1000 [label="102_PV_2 <= 0.0\nsquared_error = 0.0\nsamples = 31\nvalue = [[0.2]\n[0.0]]"] ;
994 -> 1000 ;
1001 [label="N_108 <= 0.1\nsquared_error = 0.0\nsamples = 25\nvalue = [[0.3]\n[0.0]]"] ;
1000 -> 1001 ;
1002 [label="N_104 <= 0.0\nsquared_error = 0.0\nsamples = 12\nvalue = [[0.2]\n[0.0]]"] ;
1001 -> 1002 ;
1003 [label="N_107 <= 0.1\nsquared_error = 0.0\nsamples = 9\nvalue = [[0.1]\n[0.0]]"] ;
1002 -> 1003 ;
1004 [label="113_PV_1 <= 0.0\nsquared_error = 0.0\nsamples = 8\nvalue = [[0.1]\n[0.0]]"] ;
1003 -> 1004 ;
1005 [label="squared_error = 0.0\nsamples = 1\nvalue = [[0.3]\n[0.0]]"] ;
1004 -> 1005 ;
1006 [label="N_110 <= 0.1\nsquared_error = 0.0\nsamples = 7\nvalue = [[0.0]\n[0.0]]"] ;
1004 -> 1006 ;
1007 [label="squared_error = 0.0\nsamples = 1\nvalue = [[0.1]\n[0.0]]"] ;
1006 -> 1007 ;
1008 [label="squared_error = 0.0\nsamples = 6\nvalue = [[0.0]\n[0.0]]"] ;
1006 -> 1008 ;
1009 [label="squared_error = -0.0\nsamples = 1\nvalue = [[0.4]\n[0.0]]"] ;
1003 -> 1009 ;
1010 [label="N_106 <= 0.1\nsquared_error = 0.0\nsamples = 3\nvalue = [[0.4]\n[0.0]]"] ;
1002 -> 1010 ;
1011 [label="squared_error = 0.0\nsamples = 1\nvalue = [[0.4]\n[0.0]]"] ;
1010 -> 1011 ;
1012 [label="N_119 <= 0.1\nsquared_error = 0.0\nsamples = 2\nvalue = [[0.3]\n[0.0]]"] ;
1010 -> 1012 ;
1013 [label="squared_error = 0.0\nsamples = 1\nvalue = [[0.3]\n[0.0]]"] ;
1012 -> 1013 ;
1014 [label="squared_error = -0.0\nsamples = 1\nvalue = [[0.3]\n[0.0]]"] ;
1012 -> 1014 ;
1015 [label="N_116 <= 0.0\nsquared_error = 0.0\nsamples = 13\nvalue = [[0.4]\n[0.0]]"] ;
1001 -> 1015 ;
1016 [label="N_103 <= 0.1\nsquared_error = 0.0\nsamples = 4\nvalue = [[0.4]\n[0.0]]"] ;
1015 -> 1016 ;
1017 [label="101_PV_4 <= 0.0\nsquared_error = 0.0\nsamples = 2\nvalue = [[0.4]\n[0.0]]"] ;
1016 -> 1017 ;
1018 [label="squared_error = 0.0\nsamples = 1\nvalue = [[0.3]\n[0.0]]"] ;
1017 -> 1018 ;
1019 [label="squared_error = -0.0\nsamples = 1\nvalue = [[0.4]\n[0.0]]"] ;
1017 -> 1019 ;
1020 [label="101_PV_1 <= 0.0\nsquared_error = 0.0\nsamples = 2\nvalue = [[0.5]\n[0.0]]"] ;
1016 -> 1020 ;
1021 [label="squared_error = 0.0\nsamples = 1\nvalue = [[0.5]\n[0.0]]"] ;
1020 -> 1021 ;
1022 [label="squared_error = -0.0\nsamples = 1\nvalue = [[0.5]\n[0.0]]"] ;
1020 -> 1022 ;
1023 [label="N_105 <= 0.0\nsquared_error = 0.0\nsamples = 9\nvalue = [[0.3]\n[0.0]]"] ;
1015 -> 1023 ;
1024 [label="103_PV_1 <= 0.0\nsquared_error = 0.0\nsamples = 8\nvalue = [[0.3]\n[0.0]]"] ;
1023 -> 1024 ;
1025 [label="N_105 <= 0.0\nsquared_error = 0.0\nsamples = 5\nvalue = [[0.3]\n[0.0]]"] ;
1024 -> 1025 ;
1026 [label="squared_error = 0.0\nsamples = 1\nvalue = [[0.3]\n[0.0]]"] ;
1025 -> 1026 ;
1027 [label="113_PV_1 <= 0.0\nsquared_error = 0.0\nsamples = 4\nvalue = [[0.3]\n[0.0]]"] ;
1025 -> 1027 ;
1028 [label="118_RTPV_6 <= 0.0\nsquared_error = 0.0\nsamples = 3\nvalue = [[0.3]\n[0.0]]"] ;
1027 -> 1028 ;
1029 [label="squared_error = 0.0\nsamples = 1\nvalue = [[0.3]\n[0.0]]"] ;
1028 -> 1029 ;
1030 [label="104_PV_1 <= 0.0\nsquared_error = 0.0\nsamples = 2\nvalue = [[0.3]\n[0.0]]"] ;
1028 -> 1030 ;
1031 [label="squared_error = 0.0\nsamples = 1\nvalue = [[0.3]\n[0.0]]"] ;
1030 -> 1031 ;
1032 [label="squared_error = 0.0\nsamples = 1\nvalue = [[0.3]\n[0.0]]"] ;
1030 -> 1032 ;
1033 [label="squared_error = -0.0\nsamples = 1\nvalue = [[0.3]\n[0.0]]"] ;
1027 -> 1033 ;
1034 [label="118_RTPV_7 <= 0.0\nsquared_error = 0.0\nsamples = 3\nvalue = [[0.3]\n[0.0]]"] ;
1024 -> 1034 ;
1035 [label="118_RTPV_7 <= 0.0\nsquared_error = 0.0\nsamples = 2\nvalue = [[0.3]\n[0.0]]"] ;
1034 -> 1035 ;
1036 [label="squared_error = 0.0\nsamples = 1\nvalue = [[0.3]\n[0.0]]"] ;
1035 -> 1036 ;
1037 [label="squared_error = 0.0\nsamples = 1\nvalue = [[0.3]\n[0.0]]"] ;
1035 -> 1037 ;
1038 [label="squared_error = 0.0\nsamples = 1\nvalue = [[0.3]\n[0.0]]"] ;
1034 -> 1038 ;
1039 [label="squared_error = -0.0\nsamples = 1\nvalue = [[0.4]\n[0.0]]"] ;
1023 -> 1039 ;
1040 [label="N_114 <= 0.1\nsquared_error = 0.0\nsamples = 6\nvalue = [[0.0]\n[0.0]]"] ;
1000 -> 1040 ;
1041 [label="N_106 <= 0.1\nsquared_error = 0.0\nsamples = 5\nvalue = [[0.0]\n[0.0]]"] ;
1040 -> 1041 ;
1042 [label="squared_error = 0.0\nsamples = 4\nvalue = [[0.0]\n[0.0]]"] ;
1041 -> 1042 ;
1043 [label="squared_error = 0.0\nsamples = 1\nvalue = [[0.0]\n[0.0]]"] ;
1041 -> 1043 ;
1044 [label="squared_error = 0.0\nsamples = 1\nvalue = [[0.1]\n[0.0]]"] ;
1040 -> 1044 ;
1045 [label="102_PV_2 <= 0.0\nsquared_error = 0.0\nsamples = 57\nvalue = [[0.1]\n[0.0]]"] ;
993 -> 1045 ;
1046 [label="N_116 <= 0.1\nsquared_error = 0.0\nsamples = 54\nvalue = [[0.1]\n[0.0]]"] ;
1045 -> 1046 ;
1047 [label="N_103 <= 0.1\nsquared_error = 0.0\nsamples = 48\nvalue = [[0.0]\n[0.0]]"] ;
1046 -> 1047 ;
1048 [label="squared_error = 0.0\nsamples = 1\nvalue = [[0.4]\n[0.0]]"] ;
1047 -> 1048 ;
1049 [label="103_PV_1 <= 0.0\nsquared_error = 0.0\nsamples = 47\nvalue = [[0.0]\n[0.0]]"] ;
1047 -> 1049 ;
1050 [label="N_105 <= 0.0\nsquared_error = 0.0\nsamples = 20\nvalue = [[0.1]\n[0.0]]"] ;
1049 -> 1050 ;
1051 [label="N_120 <= 0.1\nsquared_error = 0.0\nsamples = 3\nvalue = [[0.4]\n[0.0]]"] ;
1050 -> 1051 ;
1052 [label="squared_error = 0.0\nsamples = 1\nvalue = [[0.4]\n[0.0]]"] ;
1051 -> 1052 ;
1053 [label="118_RTPV_10 <= 0.0\nsquared_error = 0.0\nsamples = 2\nvalue = [[0.4]\n[0.0]]"] ;
1051 -> 1053 ;
1054 [label="squared_error = 0.0\nsamples = 1\nvalue = [[0.3]\n[0.0]]"] ;
1053 -> 1054 ;
1055 [label="squared_error = 0.0\nsamples = 1\nvalue = [[0.4]\n[0.0]]"] ;
1053 -> 1055 ;
1056 [label="N_103 <= 0.1\nsquared_error = 0.0\nsamples = 17\nvalue = [[0.1]\n[0.0]]"] ;
1050 -> 1056 ;
1057 [label="118_RTPV_7 <= 0.0\nsquared_error = 0.0\nsamples = 2\nvalue = [[0.3]\n[0.0]]"] ;
1056 -> 1057 ;
1058 [label="squared_error = 0.0\nsamples = 1\nvalue = [[0.3]\n[0.0]]"] ;
1057 -> 1058 ;
1059 [label="squared_error = 0.0\nsamples = 1\nvalue = [[0.3]\n[0.0]]"] ;
1057 -> 1059 ;
1060 [label="N_105 <= 0.0\nsquared_error = 0.0\nsamples = 15\nvalue = [[0.0]\n[0.0]]"] ;
